{"learner":{"attributes":{"scikit_learn":"{\"_estimator_type\": \"classifier\"}"},"feature_names":["B_11_last","B_1_last","B_2_last","B_2_mean6","B_37_last","B_7_mean3","B_9_last","D_42_mean12","D_64_O_mean3","P_2_last","P_2_mean3","R_1_mean12","R_1_mean3","S_3_mean6"],"feature_types":["float","float","float","float","float","float","float","float","float","float","float","float","float","float"],"gradient_booster":{"model":{"cats":{"enc":[],"feature_segments":[],"sorted_idx":[]},"gbtree_model_param":{"num_parallel_tree":"1","num_trees":"100"},"iteration_indptr":[0,1,2,3,4,5,6,7,8,9,10,11,12,13,14,15,16,17,18,19,20,21,22,23,24,25,26,27,28,29,30,31,32,33,34,35,36,37,38,39,40,41,42,43,44,45,46,47,48,49,50,51,52,53,54,55,56,57,58,59,60,61,62,63,64,65,66,67,68,69,70,71,72,73,74,75,76,77,78,79,80,81,82,83,84,85,86,87,88,89,90,91,92,93,94,95,96,97,98,99,100],"tree_info":[0,0,0,0,0,0,0,0,0,0,0,0,0,0,0,0,0,0,0,0,0,0,0,0,0,0,0,0,0,0,0,0,0,0,0,0,0,0,0,0,0,0,0,0,0,0,0,0,0,0,0,0,0,0,0,0,0,0,0,0,0,0,0,0,0,0,0,0,0,0,0,0,0,0,0,0,0,0,0,0,0,0,0,0,0,0,0,0,0,0,0,0,0,0,0,0,0,0,0,0],"trees":[{"base_weights":[-1.6834151E-3,2.1594179E0,-9.431166E-1,6.461768E-1,2.594024E0,-1.1706151E0,3.2837057E-1,2.221116E-1,2.0738597E0,2.0923707E0,3.2760477E0,-5.293922E-1,-1.2611612E0,9.0713924E-1,-6.3246876E-1,7.0604336E-1,-2.230286E-1,2.4010773E0,9.070517E-1,2.5427346E0,1.640181E0,3.5734568E0,2.8775067E0,-7.4266665E-2,-8.444537E-1,-1.0604811E0,-1.3102998E0,6.0118717E-1,1.5681049E0,-2.9559788E-1,-1.0061237E0,3.658712E-1,1.1435401E0,2.928372E-1,-3.642759E-1,3.196003E0,2.07284E0,1.7274567E-1,1.3620118E0,1.9289427E0,2.685709E0,1.3716067E0,2.1593952E0,3.5773125E0,9.3351744E-2,3.3389467E-1,2.7149858E0,-1.6547431E-1,1.076924E0,-6.144839E-1,-9.932407E-1,-1.1265644E0,-5.799339E-1,-1.2065879E0,-1.3237995E0,3.2960394E-1,1.2301426E0,1.2824587E0,2.074337E0,-4.113182E-1,4.3381605E-1,-1.051517E0,5.7176524E-1,4.9094886E-2,-4.3902934E-2,1.3771847E-1,1.7198792E-2,6.0537305E-2,-6.73792E-3,-4.0030155E-2,1.2134739E-1,6.723161E-2,3.2529953E-1,1.6091186E-1,2.5239488E-1,-7.713585E-2,8.153092E-2,1.4762656E-1,4.8762355E-3,1.666822E-1,2.3817347E-1,3.0180034E-1,2.4834989E-1,7.686279E-2,1.531957E-1,1.9710617E-1,2.6618993E-1,3.3748507E-1,3.6756635E-1,2.9350084E-1,2.3269096E-1,-3.577035E-2,2.6498517E-2,-8.5457906E-2,1.2459264E-1,-7.247139E-2,9.75358E-4,-1.0232059E-1,-3.3956867E-2,-9.3245916E-2,-1.1900901E-1,-6.574371E-2,1.0167389E-1,-1.0478759E-2,-1.21113755E-1,-1.3242477E-1,7.999172E-3,7.383691E-2,8.114189E-3,2.130221E-1,9.430736E-2,7.942637E-2,1.6248646E-1,2.300276E-1,1.5853618E-1,-5.791787E-2,-3.113444E-3,-7.436343E-2,5.6261767E-2,-5.2655514E-2,-1.0948503E-1,-3.7289478E-2,1.6121694E-1],"categories":[],"categories_nodes":[],"categories_segments":[],"categories_sizes":[],"default_left":[0,0,0,0,0,0,1,0,0,0,0,0,1,0,0,0,0,0,0,0,0,0,0,0,0,0,0,0,0,0,0,0,0,0,0,0,0,0,0,0,0,0,0,0,0,0,0,0,0,0,0,0,0,0,0,1,1,0,0,0,0,0,0,0,0,0,0,0,0,0,0,0,0,0,0,0,0,0,0,0,0,0,0,0,0,0,0,0,0,0,0,0,0,0,0,0,0,0,0,0,0,0,0,0,0,0,0,0,0,0,0,0,0,0,0,0,0,0,0,0,0,0,0],"id":0,"left_children":[1,3,5,7,9,11,13,15,17,19,21,23,25,27,29,31,33,35,37,39,41,43,45,47,49,51,53,55,57,59,61,63,65,67,69,71,73,75,77,79,81,83,85,87,-1,-1,89,91,93,95,97,99,101,103,105,107,109,111,113,115,117,119,121,-1,-1,-1,-1,-1,-1,-1,-1,-1,-1,-1,-1,-1,-1,-1,-1,-1,-1,-1,-1,-1,-1,-1,-1,-1,-1,-1,-1,-1,-1,-1,-1,-1,-1,-1,-1,-1,-1,-1,-1,-1,-1,-1,-1,-1,-1,-1,-1,-1,-1,-1,-1,-1,-1,-1,-1,-1,-1,-1,-1],"loss_changes":[2.4329756E4,2.3847617E3,2.4098574E3,4.905211E2,9.5753125E2,4.0957227E2,7.040292E2,1.3508759E2,6.8683044E1,3.2714258E2,1.3110254E2,1.2555104E2,5.9658203E1,1.5878479E2,5.963304E1,4.4280457E1,2.3934809E1,3.1037292E1,1.3881638E1,6.6188965E1,1.106333E2,3.571289E0,2.9547363E1,3.7919334E1,1.7098938E1,3.818274E1,5.3583984E0,9.209888E1,3.3389954E1,2.1432266E1,1.6739792E1,1.7374384E1,2.9479141E1,8.016842E0,1.5103252E1,3.614624E0,1.7904297E1,1.1130287E1,3.8209763E0,1.4687195E1,3.6655273E1,5.0998413E1,2.0871216E1,1.0878906E0,0E0,0E0,2.6139648E1,2.772621E1,9.722029E0,1.4177559E1,5.7760925E0,1.2134033E1,1.9218868E1,2.798462E0,2.8671875E0,3.849292E1,4.009584E1,2.5788635E1,6.109497E0,1.3883682E1,5.7209835E0,4.413788E0,7.430403E0,0E0,0E0,0E0,0E0,0E0,0E0,0E0,0E0,0E0,0E0,0E0,0E0,0E0,0E0,0E0,0E0,0E0,0E0,0E0,0E0,0E0,0E0,0E0,0E0,0E0,0E0,0E0,0E0,0E0,0E0,0E0,0E0,0E0,0E0,0E0,0E0,0E0,0E0,0E0,0E0,0E0,0E0,0E0,0E0,0E0,0E0,0E0,0E0,0E0,0E0,0E0,0E0,0E0,0E0,0E0,0E0,0E0,0E0,0E0,0E0],"parents":[2147483647,0,0,1,1,2,2,3,3,4,4,5,5,6,6,7,7,8,8,9,9,10,10,11,11,12,12,13,13,14,14,15,15,16,16,17,17,18,18,19,19,20,20,21,21,22,22,23,23,24,24,25,25,26,26,27,27,28,28,29,29,30,30,31,31,32,32,33,33,34,34,35,35,36,36,37,37,38,38,39,39,40,40,41,41,42,42,43,43,46,46,47,47,48,48,49,49,50,50,51,51,52,52,53,53,54,54,55,55,56,56,57,57,58,58,59,59,60,60,61,61,62,62],"right_children":[2,4,6,8,10,12,14,16,18,20,22,24,26,28,30,32,34,36,38,40,42,44,46,48,50,52,54,56,58,60,62,64,66,68,70,72,74,76,78,80,82,84,86,88,-1,-1,90,92,94,96,98,100,102,104,106,108,110,112,114,116,118,120,122,-1,-1,-1,-1,-1,-1,-1,-1,-1,-1,-1,-1,-1,-1,-1,-1,-1,-1,-1,-1,-1,-1,-1,-1,-1,-1,-1,-1,-1,-1,-1,-1,-1,-1,-1,-1,-1,-1,-1,-1,-1,-1,-1,-1,-1,-1,-1,-1,-1,-1,-1,-1,-1,-1,-1,-1,-1,-1,-1,-1],"split_conditions":[5.020066E-1,5.099452E-2,1.386873E-1,1.753158E-1,2.5776547E-1,6.1882615E-1,6.63455E-1,3.9786828E-1,3.801442E-1,3.760024E-1,2.3250456E-1,8.1319237E-1,7.270317E-1,5.341651E-1,7.7155256E-1,2.2536427E-2,6.407098E-1,1.0987335E-1,8.169683E-3,9.778817E-2,3.8377768E-1,9.083715E-1,3.031727E-2,3.3672377E-1,5.573706E-1,6.5247044E-2,8.0395997E-1,9.2677595E-3,8.3570856E-1,6.895769E-1,2.5776547E-1,9.7076625E-1,9.7076625E-1,4.5982197E-1,5.5782363E-2,3.3595464E-1,2.5542673E-2,1.7157829E-1,4.866196E-1,1.6923106E-1,2.6350924E-1,9.0074606E-2,8.1221026E-1,5.066281E-1,9.3351744E-2,3.3389467E-1,3.801442E-1,8.008702E-2,6.142736E-3,8.6335294E-2,5.1988482E-2,8.1384E-1,2.2785926E-1,9.432895E-4,3.5610554E-1,5.539215E-1,5.278479E-1,1.046541E-2,2.9448925E-2,2.5578203E-2,4.1809813E-3,3.130148E-2,3.6500716E-1,4.9094886E-2,-4.3902934E-2,1.3771847E-1,1.7198792E-2,6.0537305E-2,-6.73792E-3,-4.0030155E-2,1.2134739E-1,6.723161E-2,3.2529953E-1,1.6091186E-1,2.5239488E-1,-7.713585E-2,8.153092E-2,1.4762656E-1,4.8762355E-3,1.666822E-1,2.3817347E-1,3.0180034E-1,2.4834989E-1,7.686279E-2,1.531957E-1,1.9710617E-1,2.6618993E-1,3.3748507E-1,3.6756635E-1,2.9350084E-1,2.3269096E-1,-3.577035E-2,2.6498517E-2,-8.5457906E-2,1.2459264E-1,-7.247139E-2,9.75358E-4,-1.0232059E-1,-3.3956867E-2,-9.3245916E-2,-1.1900901E-1,-6.574371E-2,1.0167389E-1,-1.0478759E-2,-1.21113755E-1,-1.3242477E-1,7.999172E-3,7.383691E-2,8.114189E-3,2.130221E-1,9.430736E-2,7.942637E-2,1.6248646E-1,2.300276E-1,1.5853618E-1,-5.791787E-2,-3.113444E-3,-7.436343E-2,5.6261767E-2,-5.2655514E-2,-1.0948503E-1,-3.7289478E-2,1.6121694E-1],"split_indices":[9,4,1,12,12,9,9,9,9,9,9,3,9,4,9,1,3,9,0,4,1,3,3,12,9,1,3,12,0,1,12,3,3,9,1,12,4,11,9,12,9,1,4,12,0,0,9,1,0,12,0,3,11,12,11,9,9,11,3,11,11,3,0,0,0,0,0,0,0,0,0,0,0,0,0,0,0,0,0,0,0,0,0,0,0,0,0,0,0,0,0,0,0,0,0,0,0,0,0,0,0,0,0,0,0,0,0,0,0,0,0,0,0,0,0,0,0,0,0,0,0,0,0],"split_type":[0,0,0,0,0,0,0,0,0,0,0,0,0,0,0,0,0,0,0,0,0,0,0,0,0,0,0,0,0,0,0,0,0,0,0,0,0,0,0,0,0,0,0,0,0,0,0,0,0,0,0,0,0,0,0,0,0,0,0,0,0,0,0,0,0,0,0,0,0,0,0,0,0,0,0,0,0,0,0,0,0,0,0,0,0,0,0,0,0,0,0,0,0,0,0,0,0,0,0,0,0,0,0,0,0,0,0,0,0,0,0,0,0,0,0,0,0,0,0,0,0,0,0],"sum_hessian":[1.19564E4,3.6276582E3,8.328742E3,8.099627E2,2.8176956E3,7.064771E3,1.2639717E3,6.2536566E2,1.8459705E2,1.625874E3,1.1918215E3,8.7501306E2,6.189758E3,7.88855E2,4.7511673E2,2.9934656E2,3.260191E2,1.4334096E2,4.1256096E1,8.122654E2,8.1360864E2,6.7794324E2,5.138783E2,3.5844833E2,5.165647E2,1.221948E3,4.9678096E3,5.4055084E2,2.4830414E2,2.5079869E2,2.2431804E2,1.6943784E2,1.2990874E2,6.9847534E1,2.5617157E2,3.9337208E1,1.04003746E2,1.631055E1,2.4945547E1,1.5619751E2,6.560679E2,5.3863196E2,2.7497668E2,6.766E2,1.3432218E0,1.287574E2,3.8512088E2,3.3292712E2,2.5521214E1,2.0493727E2,3.1162744E2,1.0730424E3,1.4890573E2,5.8257446E2,4.3852354E3,3.7859665E2,1.6195416E2,1.6099472E2,8.730942E1,2.1683437E2,3.396432E1,2.1836948E2,5.9485536E0,1.4698683E2,2.2450993E1,1.0438752E2,2.5521214E1,3.7034542E1,3.281299E1,2.5118246E2,4.9891095E0,1.151333E0,3.8185875E1,5.3536983E1,5.0466763E1,6.52422E0,9.78633E0,2.283477E1,2.1107771E0,1.0189297E2,5.430454E1,2.4293124E2,4.1313663E2,1.1436574E2,4.242662E2,2.0359404E2,7.1382645E1,2.3276114E2,4.4383884E2,2.4158803E2,1.4353284E2,2.3026659E2,1.0266052E2,1.7269994E0,2.3794214E1,1.7404317E2,3.08941E1,2.9742767E2,1.4199773E1,2.6845245E2,8.0458984E2,1.425734E2,6.332331E0,2.4945548E0,5.800799E2,4.383892E3,1.3432218E0,1.423815E2,2.3621515E2,3.761021E1,1.24343956E2,6.7736755E1,9.3257965E1,5.718287E1,3.0126545E1,1.5005707E2,6.677731E1,2.8783324E0,3.1085989E1,1.7653772E1,2.0071571E2,3.4539988E0,2.4945548E0],"tree_param":{"num_deleted":"0","num_feature":"14","num_nodes":"123","size_leaf_vector":"1"}},{"base_weights":[-3.7146376E-3,1.6743826E0,-9.4989604E-1,2.0745401E0,5.7701427E-1,-1.1523176E0,1.1645679E-1,2.4225464E0,1.5259615E0,1.2948703E0,7.796144E-3,-7.008225E-1,-1.2416627E0,5.932035E-1,-6.8915784E-1,2.0788245E0,2.6634681E0,1.2083182E0,1.930283E0,8.7108314E-1,1.9707108E0,-4.6845108E-1,4.4507816E-1,-8.859175E-1,-1.0715631E-1,-1.1200347E0,-1.2780195E0,1.1548868E0,2.555162E-1,-2.2025701E-1,-8.8515025E-1,1.6863391E0,2.2195404E0,2.848974E0,2.4942567E0,1.5604208E0,8.161116E-1,1.2938898E0,2.1849418E0,5.47745E-1,1.4567388E0,1.2029494E0,2.3383074E0,-3.242055E-1,-1.0554814E0,1.5888436E-1,1.1686006E0,-5.0848514E-1,-9.8475957E-1,-3.443579E-1,7.272121E-1,-1.1845598E0,-8.253233E-1,-1.278934E0,-6.2421715E-1,8.8952494E-1,1.8023165E0,-1.2145633E-1,5.575393E-1,1.3317682E0,-3.1038392E-1,7.257526E-2,-9.369473E-1,6.298E-2,1.8202655E-1,2.5235122E-1,2.0524183E-1,1.7156647E-1,2.858876E-1,2.71401E-1,2.2678445E-1,1.1251154E-1,1.8608393E-1,1.0923822E-1,4.017604E-2,1.905397E-1,1.0469089E-1,2.4987756E-1,1.8942128E-1,1.1892486E-2,8.9898236E-2,1.6695297E-1,5.7913143E-2,8.6236075E-2,2.2473454E-1,2.6621625E-1,1.8806852E-1,-5.770549E-2,-3.1741758E-4,-1.14412956E-1,7.40363E-2,-4.2046015E-3,8.215519E-2,7.986232E-2,1.7497449E-1,-5.8769852E-2,7.655436E-2,-8.762773E-2,-1.18135266E-1,-4.7140714E-2,3.0241951E-2,1.6023885E-1,1.3313335E-2,-9.099927E-2,-1.2136296E-1,4.4415206E-2,-8.890867E-2,-1.1771353E-1,-1.284198E-1,5.8175918E-2,-9.5336154E-2,3.9025825E-2,1.14696406E-1,7.292507E-2,1.9714426E-1,-2.9748863E-2,3.5809066E-2,3.559059E-2,1.0524422E-1,2.73317E-2,2.1953455E-1,-4.302197E-2,5.232211E-2,-3.243039E-2,2.0193136E-1,-1.069319E-1,-7.104417E-2],"categories":[],"categories_nodes":[],"categories_segments":[],"categories_sizes":[],"default_left":[0,0,0,0,0,1,1,0,0,0,1,1,0,0,0,1,0,0,1,1,1,0,0,1,0,1,0,0,1,0,0,0,0,0,0,1,0,0,0,0,0,0,0,0,0,0,0,0,0,0,1,0,0,0,0,0,0,0,0,0,0,1,0,0,0,0,0,0,0,0,0,0,0,0,0,0,0,0,0,0,0,0,0,0,0,0,0,0,0,0,0,0,0,0,0,0,0,0,0,0,0,0,0,0,0,0,0,0,0,0,0,0,0,0,0,0,0,0,0,0,0,0,0,0,0,0,0],"id":1,"left_children":[1,3,5,7,9,11,13,15,17,19,21,23,25,27,29,31,33,35,37,39,41,43,45,47,49,51,53,55,57,59,61,63,65,67,69,71,73,75,77,79,81,83,85,87,89,91,93,95,97,99,101,103,105,107,109,111,113,115,117,119,121,123,125,-1,-1,-1,-1,-1,-1,-1,-1,-1,-1,-1,-1,-1,-1,-1,-1,-1,-1,-1,-1,-1,-1,-1,-1,-1,-1,-1,-1,-1,-1,-1,-1,-1,-1,-1,-1,-1,-1,-1,-1,-1,-1,-1,-1,-1,-1,-1,-1,-1,-1,-1,-1,-1,-1,-1,-1,-1,-1,-1,-1,-1,-1,-1,-1],"loss_changes":[1.8991145E4,1.8924873E3,1.6510479E3,5.9952246E2,4.7142145E2,2.5843652E2,4.6941354E2,1.5441797E2,1.5552563E2,1.4442181E2,1.3442592E2,1.1684601E2,2.2291992E1,1.4531433E2,4.1569077E1,4.0469727E1,2.842871E1,9.4155334E1,8.454309E1,5.8925613E1,5.2460876E1,2.5821709E1,6.9492905E1,2.9759644E1,5.053608E1,2.2654419E1,1.6669922E0,4.786908E1,5.480051E1,1.9337538E1,1.5950043E1,2.9336426E1,2.4594727E1,1.0761719E0,2.3700928E1,4.5381653E1,3.7222015E1,2.1645721E1,3.0265137E1,3.074023E1,1.987114E1,2.1350235E1,1.4464111E1,2.0249233E1,1.0479324E1,3.2294266E1,1.907602E1,1.7647106E1,1.265094E1,1.645504E1,2.9195633E1,7.0146484E0,1.8730148E1,6.9433594E-1,3.6158826E0,2.6057983E1,1.3578125E1,1.8226559E1,2.6276436E1,6.359727E0,1.3079204E1,1.4063546E1,8.349182E0,0E0,0E0,0E0,0E0,0E0,0E0,0E0,0E0,0E0,0E0,0E0,0E0,0E0,0E0,0E0,0E0,0E0,0E0,0E0,0E0,0E0,0E0,0E0,0E0,0E0,0E0,0E0,0E0,0E0,0E0,0E0,0E0,0E0,0E0,0E0,0E0,0E0,0E0,0E0,0E0,0E0,0E0,0E0,0E0,0E0,0E0,0E0,0E0,0E0,0E0,0E0,0E0,0E0,0E0,0E0,0E0,0E0,0E0,0E0,0E0,0E0,0E0,0E0,0E0],"parents":[2147483647,0,0,1,1,2,2,3,3,4,4,5,5,6,6,7,7,8,8,9,9,10,10,11,11,12,12,13,13,14,14,15,15,16,16,17,17,18,18,19,19,20,20,21,21,22,22,23,23,24,24,25,25,26,26,27,27,28,28,29,29,30,30,31,31,32,32,33,33,34,34,35,35,36,36,37,37,38,38,39,39,40,40,41,41,42,42,43,43,44,44,45,45,46,46,47,47,48,48,49,49,50,50,51,51,52,52,53,53,54,54,55,55,56,56,57,57,58,58,59,59,60,60,61,61,62,62],"right_children":[2,4,6,8,10,12,14,16,18,20,22,24,26,28,30,32,34,36,38,40,42,44,46,48,50,52,54,56,58,60,62,64,66,68,70,72,74,76,78,80,82,84,86,88,90,92,94,96,98,100,102,104,106,108,110,112,114,116,118,120,122,124,126,-1,-1,-1,-1,-1,-1,-1,-1,-1,-1,-1,-1,-1,-1,-1,-1,-1,-1,-1,-1,-1,-1,-1,-1,-1,-1,-1,-1,-1,-1,-1,-1,-1,-1,-1,-1,-1,-1,-1,-1,-1,-1,-1,-1,-1,-1,-1,-1,-1,-1,-1,-1,-1,-1,-1,-1,-1,-1,-1,-1,-1,-1,-1,-1],"split_conditions":[5.278479E-1,3.185642E-1,1.20618306E-1,3.7177107E-1,3.801442E-1,6.5740114E-1,6.816312E-1,2.5356624E-1,8.664075E-3,1.753158E-1,1.7070898E-1,2.2183622E-1,7.7155256E-1,3.0727252E-2,7.3368156E-1,1.7589699E-1,2.8066766E-2,4.173604E-2,1.6411531E-1,2.7322054E-1,1.956053E-1,9.72627E-1,6.347836E-2,8.1035376E-1,6.0823902E-2,2.0886542E-1,3.3769253E-1,1.6975184E-1,1.6364944E-1,8.5127875E-3,1.4367583E-2,7.5558506E-2,2.8615683E-2,2.3196643E-2,1.6306503E-1,1.836285E-1,4.6820086E-1,2.4024472E-2,2.983966E-2,2.000979E-2,9.410005E-1,6.7226166E-1,2.2351797E-1,6.101575E-3,9.266283E-2,1.684754E-1,7.6822108E-3,3.3595464E-1,9.098917E-1,8.664075E-3,1.31675E-1,4.2364094E-1,8.3852485E-2,4.9099118E-1,3.3861876E-1,4.1798615E-1,1.3432294E-1,1.7011999E-1,8.6335294E-2,2.490693E-1,6.6528684E-1,4.7594252E-1,1.7658672E-1,6.298E-2,1.8202655E-1,2.5235122E-1,2.0524183E-1,1.7156647E-1,2.858876E-1,2.71401E-1,2.2678445E-1,1.1251154E-1,1.8608393E-1,1.0923822E-1,4.017604E-2,1.905397E-1,1.0469089E-1,2.4987756E-1,1.8942128E-1,1.1892486E-2,8.9898236E-2,1.6695297E-1,5.7913143E-2,8.6236075E-2,2.2473454E-1,2.6621625E-1,1.8806852E-1,-5.770549E-2,-3.1741758E-4,-1.14412956E-1,7.40363E-2,-4.2046015E-3,8.215519E-2,7.986232E-2,1.7497449E-1,-5.8769852E-2,7.655436E-2,-8.762773E-2,-1.18135266E-1,-4.7140714E-2,3.0241951E-2,1.6023885E-1,1.3313335E-2,-9.099927E-2,-1.2136296E-1,4.4415206E-2,-8.890867E-2,-1.1771353E-1,-1.284198E-1,5.8175918E-2,-9.5336154E-2,3.9025825E-2,1.14696406E-1,7.292507E-2,1.9714426E-1,-2.9748863E-2,3.5809066E-2,3.559059E-2,1.0524422E-1,2.73317E-2,2.1953455E-1,-4.302197E-2,5.232211E-2,-3.243039E-2,2.0193136E-1,-1.069319E-1,-7.104417E-2],"split_indices":[9,2,1,9,9,9,9,12,12,12,13,13,9,2,9,13,2,2,13,13,13,3,1,2,4,13,12,12,13,2,2,1,2,4,9,13,9,2,2,1,3,12,9,12,1,12,12,12,3,12,2,2,2,2,12,4,13,12,12,13,1,13,13,0,0,0,0,0,0,0,0,0,0,0,0,0,0,0,0,0,0,0,0,0,0,0,0,0,0,0,0,0,0,0,0,0,0,0,0,0,0,0,0,0,0,0,0,0,0,0,0,0,0,0,0,0,0,0,0,0,0,0,0,0,0,0,0],"split_type":[0,0,0,0,0,0,0,0,0,0,0,0,0,0,0,0,0,0,0,0,0,0,0,0,0,0,0,0,0,0,0,0,0,0,0,0,0,0,0,0,0,0,0,0,0,0,0,0,0,0,0,0,0,0,0,0,0,0,0,0,0,0,0,0,0,0,0,0,0,0,0,0,0,0,0,0,0,0,0,0,0,0,0,0,0,0,0,0,0,0,0,0,0,0,0,0,0,0,0,0,0,0,0,0,0,0,0,0,0,0,0,0,0,0,0,0,0,0,0,0,0,0,0,0,0,0,0],"sum_hessian":[1.1958781E4,4.3114507E3,7.64733E3,3.158725E3,1.1527257E3,6.4271997E3,1.2201307E3,1.9305865E3,1.2281385E3,5.0923773E2,6.43488E2,1.063215E3,5.363985E3,7.6668524E2,4.5344543E2,7.995298E2,1.1310568E3,6.900274E2,5.381112E2,3.1438864E2,1.948491E2,3.0798636E2,3.355016E2,8.1013605E2,2.5307892E2,1.2417227E3,4.122262E3,2.869592E2,4.7972607E2,1.3428941E2,3.19156E2,2.144284E2,5.851014E2,5.3199554E2,5.990612E2,3.6203384E2,3.2799356E2,1.5552777E2,3.8258344E2,2.0380434E2,1.1058429E2,6.44699E1,1.3037921E2,2.4848154E2,5.9504818E1,2.4128099E2,9.422061E1,1.694041E2,6.4073193E2,1.9751491E2,5.5564E1,1.0162105E3,2.2551212E2,4.11555E3,6.7121296E0,2.0521976E2,8.173944E1,2.136522E2,2.6607385E2,6.6141553E0,1.27675255E2,1.6354815E1,3.028012E2,2.4764534E1,1.8966386E2,2.0256454E2,3.825368E2,6.117313E0,5.2587823E2,2.984257E2,3.006355E2,1.4976701E2,2.1226682E2,1.9580399E2,1.3218958E2,4.2812424E1,1.1271534E2,1.8032881E2,2.0225461E2,9.236994E1,1.114344E2,8.827754E1,2.230675E1,4.9992516E1,1.4477386E1,7.3527245E1,5.6851963E1,1.3855548E2,1.0992605E2,5.705149E1,2.4533255E0,1.8586162E2,5.5419373E1,5.902035E1,3.520026E1,1.5999504E2,9.409064E0,4.1640973E2,2.2432219E2,1.6531294E2,3.220197E1,2.178048E1,3.378352E1,1.0038333E2,9.1582715E2,1.050002E1,2.150121E2,2.1339578E2,3.902154E3,1.2745872E0,5.4375424E0,7.067383E1,1.3454593E2,1.1852138E1,6.988731E1,1.5656128E2,5.7090927E1,1.9027225E2,7.580161E1,3.5632813E0,3.0508738E0,1.1205113E2,1.5624122E1,1.4277492E1,2.0773227E0,1.887647E2,1.1403651E2],"tree_param":{"num_deleted":"0","num_feature":"14","num_nodes":"127","size_leaf_vector":"1"}},{"base_weights":[-1.0367086E-2,1.3537463E0,-9.526612E-1,6.7876184E-1,1.8042196E0,2.5879903E-2,-1.1223117E0,1.4172412E0,2.4243708E-1,2.093493E0,1.4680984E0,4.6800962E-1,-6.129896E-1,-6.839145E-1,-1.1952105E0,1.9603764E-1,1.6068766E0,-6.094078E-1,5.588784E-1,2.2917867E0,1.901432E0,2.1859474E0,1.3363696E0,1.6996868E-1,9.9147344E-1,-2.8678253E-1,-9.2891854E-1,-9.0070444E-1,-2.1305884E-1,-1.0153812E0,-1.2260509E0,-2.825699E-1,1.039553E0,1.1772498E0,1.8471327E0,-8.372814E-1,2.8010073E-1,1.0198957E0,3.126362E-1,1.6053225E0,2.304322E0,2.2664657E0,1.7939228E0,1.9638916E0,2.4770706E0,9.004024E-1,1.5462438E0,-1.0473962E-1,7.3831946E-1,2.2032218E0,8.3429044E-1,-4.777024E-1,1.06866375E-1,-9.558436E-1,6.087443E-1,-1.0894705E0,-5.838164E-1,-4.2690483E-1,4.7105572E-1,-1.0958484E0,-5.9839016E-1,-1.2294562E0,-5.6858605E-1,1.0747246E-1,-5.7426687E-2,6.605934E-2,2.1676622E-1,5.1610913E-2,1.3943335E-1,2.2739768E-1,1.6649176E-1,-9.7021036E-2,-4.4408336E-2,-4.295881E-2,8.809116E-2,8.853951E-3,1.1197001E-1,-1.2490838E-2,5.690564E-2,1.8974699E-1,5.4829843E-2,6.903188E-2,2.3074715E-1,5.7512056E-2,2.2741485E-1,1.5918283E-1,1.9812174E-1,2.6245425E-2,1.9923805E-1,1.21182494E-1,2.5240442E-1,1.0845375E-1,4.550246E-2,1.3522384E-1,1.7547874E-1,-3.6257125E-2,1.9613085E-2,4.7561456E-2,1.05067246E-1,-2.0001682E-2,2.4122985E-1,4.3420907E-2,1.1048881E-1,-9.7978786E-2,-3.2442518E-2,-3.0341757E-2,7.334747E-2,-1.00306295E-1,-2.7109005E-3,-7.138475E-2,1.3683932E-1,-1.1056048E-1,-2.0348746E-3,-6.793334E-2,-9.1150915E-3,-7.829242E-2,-1.632793E-2,-1.0228641E-1,5.7887238E-2,-1.1163434E-1,-4.7728732E-2,-7.783819E-2,2.1427885E-2,-1.23031996E-1,-1.7900897E-2,-9.104296E-2,7.602664E-2],"categories":[],"categories_nodes":[],"categories_segments":[],"categories_sizes":[],"default_left":[0,0,1,0,0,1,1,0,0,0,0,0,0,1,0,1,0,1,0,0,0,0,0,1,0,0,1,0,0,1,0,0,0,1,0,0,0,0,1,0,0,0,0,0,0,0,0,0,0,0,0,0,0,0,0,0,0,0,0,0,0,0,0,0,0,0,0,0,0,0,0,0,0,0,0,0,0,0,0,0,0,0,0,0,0,0,0,0,0,0,0,0,0,0,0,0,0,0,0,0,0,0,0,0,0,0,0,0,0,0,0,0,0,0,0,0,0,0,0,0,0,0,0,0,0,0,0],"id":2,"left_children":[1,3,5,7,9,11,13,15,17,19,21,23,25,27,29,31,33,35,37,39,41,43,45,47,49,51,53,55,57,59,61,63,65,67,69,71,73,75,77,79,81,83,85,87,89,91,93,95,97,99,101,103,105,107,109,111,113,115,117,119,121,123,125,-1,-1,-1,-1,-1,-1,-1,-1,-1,-1,-1,-1,-1,-1,-1,-1,-1,-1,-1,-1,-1,-1,-1,-1,-1,-1,-1,-1,-1,-1,-1,-1,-1,-1,-1,-1,-1,-1,-1,-1,-1,-1,-1,-1,-1,-1,-1,-1,-1,-1,-1,-1,-1,-1,-1,-1,-1,-1,-1,-1,-1,-1,-1,-1],"loss_changes":[1.5163819E4,1.4642725E3,1.1583252E3,6.2177203E2,2.7792285E2,2.9176086E2,1.8922021E2,1.6570093E2,3.2781775E2,5.470703E1,1.2380005E2,9.506525E1,4.3273804E1,8.6588715E1,2.702539E1,3.965419E1,6.1861084E1,6.702989E1,1.0029877E2,2.8254395E0,2.7082764E1,8.466064E0,1.02447754E2,6.0994347E1,4.030301E1,1.5781538E1,9.449081E0,3.4167023E1,3.960303E1,2.4577332E1,9.03125E0,2.5555655E1,1.37476845E1,3.1610046E1,2.7023071E1,1.329364E1,2.9352924E1,2.8544006E1,6.50526E1,4.176407E0,2.18042E0,9.891968E-1,2.0235107E1,5.381439E0,2.0170288E0,2.9947662E1,2.8565674E1,2.0543484E1,9.942734E0,1.2941078E1,2.0897202E1,1.0543224E1,1.800694E1,9.220749E0,5.2937174E0,6.2470703E0,1.02604065E1,1.9179794E1,1.0999733E1,7.4434204E0,1.8282162E1,3.7021484E0,1.1710733E1,0E0,0E0,0E0,0E0,0E0,0E0,0E0,0E0,0E0,0E0,0E0,0E0,0E0,0E0,0E0,0E0,0E0,0E0,0E0,0E0,0E0,0E0,0E0,0E0,0E0,0E0,0E0,0E0,0E0,0E0,0E0,0E0,0E0,0E0,0E0,0E0,0E0,0E0,0E0,0E0,0E0,0E0,0E0,0E0,0E0,0E0,0E0,0E0,0E0,0E0,0E0,0E0,0E0,0E0,0E0,0E0,0E0,0E0,0E0,0E0,0E0,0E0,0E0,0E0],"parents":[2147483647,0,0,1,1,2,2,3,3,4,4,5,5,6,6,7,7,8,8,9,9,10,10,11,11,12,12,13,13,14,14,15,15,16,16,17,17,18,18,19,19,20,20,21,21,22,22,23,23,24,24,25,25,26,26,27,27,28,28,29,29,30,30,31,31,32,32,33,33,34,34,35,35,36,36,37,37,38,38,39,39,40,40,41,41,42,42,43,43,44,44,45,45,46,46,47,47,48,48,49,49,50,50,51,51,52,52,53,53,54,54,55,55,56,56,57,57,58,58,59,59,60,60,61,61,62,62],"right_children":[2,4,6,8,10,12,14,16,18,20,22,24,26,28,30,32,34,36,38,40,42,44,46,48,50,52,54,56,58,60,62,64,66,68,70,72,74,76,78,80,82,84,86,88,90,92,94,96,98,100,102,104,106,108,110,112,114,116,118,120,122,124,126,-1,-1,-1,-1,-1,-1,-1,-1,-1,-1,-1,-1,-1,-1,-1,-1,-1,-1,-1,-1,-1,-1,-1,-1,-1,-1,-1,-1,-1,-1,-1,-1,-1,-1,-1,-1,-1,-1,-1,-1,-1,-1,-1,-1,-1,-1,-1,-1,-1,-1,-1,-1,-1,-1,-1,-1,-1,-1,-1,-1,-1,-1,-1,-1],"split_conditions":[5.504576E-1,4.5583102E-1,1.3890639E-1,3.7177107E-1,3.3307233E-1,6.816312E-1,6.5027726E-1,5.1042505E-2,7.672175E-2,1.8645525E-1,1.9589547E-2,5.2292806E-1,7.7451724E-1,1.859214E-1,7.270317E-1,2.5931674E-1,1.10710025E-1,2.8882846E-1,8.3852485E-2,4.593337E-2,1.9589547E-2,6.4336956E-1,1.7394865E-1,2.3005605E-1,1.195093E-2,2.3239186E-1,6.255098E-1,1.0855916E-1,2.0417485E-1,2.3938608E-1,4.9763045E-1,7.142089E-1,2.5477877E-1,1.5690528E-1,4.3325577E-2,4.9154814E-2,3.759636E-2,1.2891139E-1,1.6321209E-1,6.648022E-2,7.076328E-2,4.0963605E-2,2.6744306E-1,1.0887264E-1,4.6578534E-3,8.732153E-2,6.200889E-1,3.4673563E-1,2.3678906E-2,8.0152266E-2,1.6462013E-1,1.2969771E-1,3.7018993E-1,5.2292806E-1,1.0111014E-1,2.0078902E-1,2.3437892E-1,5.6086242E-2,3.294851E-2,3.601752E-1,4.517592E-2,3.371653E-1,9.209468E-3,1.0747246E-1,-5.7426687E-2,6.605934E-2,2.1676622E-1,5.1610913E-2,1.3943335E-1,2.2739768E-1,1.6649176E-1,-9.7021036E-2,-4.4408336E-2,-4.295881E-2,8.809116E-2,8.853951E-3,1.1197001E-1,-1.2490838E-2,5.690564E-2,1.8974699E-1,5.4829843E-2,6.903188E-2,2.3074715E-1,5.7512056E-2,2.2741485E-1,1.5918283E-1,1.9812174E-1,2.6245425E-2,1.9923805E-1,1.21182494E-1,2.5240442E-1,1.0845375E-1,4.550246E-2,1.3522384E-1,1.7547874E-1,-3.6257125E-2,1.9613085E-2,4.7561456E-2,1.05067246E-1,-2.0001682E-2,2.4122985E-1,4.3420907E-2,1.1048881E-1,-9.7978786E-2,-3.2442518E-2,-3.0341757E-2,7.334747E-2,-1.00306295E-1,-2.7109005E-3,-7.138475E-2,1.3683932E-1,-1.1056048E-1,-2.0348746E-3,-6.793334E-2,-9.1150915E-3,-7.829242E-2,-1.632793E-2,-1.0228641E-1,5.7887238E-2,-1.1163434E-1,-4.7728732E-2,-7.783819E-2,2.1427885E-2,-1.23031996E-1,-1.7900897E-2,-9.104296E-2,7.602664E-2],"split_indices":[9,6,2,9,9,9,9,5,5,9,2,6,9,13,9,13,11,13,2,11,2,6,13,13,2,13,13,5,6,13,6,2,11,13,2,5,5,13,13,2,13,5,13,13,11,2,6,5,11,5,13,5,5,6,5,11,6,5,5,6,11,11,11,0,0,0,0,0,0,0,0,0,0,0,0,0,0,0,0,0,0,0,0,0,0,0,0,0,0,0,0,0,0,0,0,0,0,0,0,0,0,0,0,0,0,0,0,0,0,0,0,0,0,0,0,0,0,0,0,0,0,0,0,0,0,0,0],"split_type":[0,0,0,0,0,0,0,0,0,0,0,0,0,0,0,0,0,0,0,0,0,0,0,0,0,0,0,0,0,0,0,0,0,0,0,0,0,0,0,0,0,0,0,0,0,0,0,0,0,0,0,0,0,0,0,0,0,0,0,0,0,0,0,0,0,0,0,0,0,0,0,0,0,0,0,0,0,0,0,0,0,0,0,0,0,0,0,0,0,0,0,0,0,0,0,0,0,0,0,0,0,0,0,0,0,0,0,0,0,0,0,0,0,0,0,0,0,0,0,0,0,0,0,0,0,0,0],"sum_hessian":[1.1794997E4,4.8187256E3,6.9762715E3,1.9297361E3,2.8889895E3,1.0309008E3,5.9453706E3,7.158731E2,1.213863E3,1.5498907E3,1.3390988E3,6.0941943E2,4.2148135E2,8.491503E2,5.0962207E3,9.649615E1,6.1937695E2,3.285355E2,8.853275E2,7.5719305E2,7.9269775E2,2.052121E2,1.1338867E3,3.891669E2,2.2025255E2,2.0830612E2,2.1317522E2,5.808186E2,2.6833176E2,7.5101074E2,4.3452095E3,6.198889E1,3.450726E1,2.2425801E2,3.9511896E2,2.6158224E2,6.695323E1,3.071452E2,5.781823E2,1.58933525E1,7.412997E2,1.7577966E2,6.169181E2,1.2080976E2,8.4402336E1,3.7018967E2,7.63697E2,2.6290793E2,1.26258965E2,2.379514E1,1.964574E2,1.4012965E2,6.817647E1,2.0987854E2,3.2966762E0,3.6246494E2,2.1835367E2,2.0471597E2,6.361578E1,6.2816504E2,1.2284571E2,4.3219536E3,2.3256092E1,1.0490621E1,5.1498272E1,2.7017118E1,7.4901395E0,5.626802E1,1.6798999E2,1.14775215E2,2.8034375E2,1.943953E2,6.718696E1,3.082599E1,3.612724E1,2.991075E1,2.7723444E2,2.1382805E2,3.6435428E2,1.1828896E1,4.0644565E0,1.8726097E0,7.3942706E2,1.1378696E0,1.746418E2,3.0130414E2,3.1561395E2,2.1577046E0,1.18652054E2,3.980643E0,8.042169E1,2.6089236E2,1.0929731E2,3.9951642E2,3.6418063E2,1.414699E2,1.2143803E2,6.9950066E1,5.6308903E1,1.9079111E0,2.1887228E1,8.031521E1,1.1614219E2,3.15126E1,1.0861706E2,4.1511673E1,2.6664795E1,1.9964787E2,1.02306595E1,1.2246989E0,2.0719774E0,3.5704263E2,5.4223065E0,1.825771E2,3.5776566E1,8.625757E1,1.1845841E2,3.7108433E0,5.9904938E1,6.0724036E2,2.092466E1,1.0060556E2,2.2240152E1,4.3182314E3,3.7221704E0,1.8748077E1,4.5080147E0],"tree_param":{"num_deleted":"0","num_feature":"14","num_nodes":"127","size_leaf_vector":"1"}},{"base_weights":[-1.2297591E-2,1.1220865E0,-9.543082E-1,5.7140684E-1,1.5955075E0,-8.287063E-2,-1.099374E0,1.0320604E0,-1.9844702E-2,1.3412417E0,1.9156653E0,2.5003964E-1,-7.189706E-1,-1.1274629E0,1.5873411E-1,1.2879987E0,6.807658E-1,-3.5208586E-1,1.0388148E0,1.4983147E0,6.708067E-1,3.6038685E-1,1.933922E0,3.6665708E-2,6.7855906E-1,-7.9775065E-1,2.1904317E-1,-8.240228E-1,-1.1771107E0,-1.0856788E-1,1.0874304E0,1.0526869E0,1.4679906E0,4.9399933E-1,1.0319834E0,-8.0272645E-1,-3.5286266E-2,2.845156E-1,1.2035567E0,1.6370445E0,1.1152812E0,2.8566894E-1,1.3749628E0,-4.5677722E-1,1.9875376E-1,1.985597E0,1.5817517E0,-1.21428095E-1,6.2873524E-1,9.9211866E-1,2.9955283E-1,-9.6500874E-1,-5.3667694E-1,1.7217821E-1,-2.4137059E-1,-1.0547173E0,-6.0011315E-1,-1.0680506E0,-1.2051514E0,-3.1392175E-1,1.36669E0,1.5531642E0,5.1468635E-1,9.845225E-2,1.7968181E-1,1.9150421E-1,1.3578223E-1,1.4768315E-2,7.766235E-2,1.2601112E-1,7.698181E-2,-9.881135E-2,-2.2634586E-2,3.8175542E-2,-2.923288E-2,9.0980284E-2,-1.6521854E-2,9.1779545E-2,1.5283848E-1,1.2214351E-1,1.6924326E-1,1.4928901E-1,7.987044E-2,-7.413838E-2,5.2267104E-2,1.2128457E-1,1.871879E-1,9.445095E-2,-9.314281E-2,1.8819399E-1,2.0765495E-1,1.23732105E-1,1.8608949E-1,1.2194669E-2,-3.0752791E-2,1.4155832E-1,3.927631E-2,8.192147E-2,1.8925963E-1,1.9861517E-2,1.3550393E-1,-1.0510825E-1,-6.969901E-2,-5.854836E-2,8.212379E-2,-7.069741E-2,2.8330628E-2,-1.07815795E-1,-3.546416E-2,-6.817018E-2,1.4362908E-2,-1.142334E-1,-8.898083E-2,-1.20614566E-1,-5.6253165E-2,-1.0704681E-3,-7.1910135E-2,-6.366299E-2,1.6164681E-1,5.310608E-2,1.8403696E-1,-8.065214E-2,7.7291094E-2],"categories":[],"categories_nodes":[],"categories_segments":[],"categories_sizes":[],"default_left":[0,0,1,0,0,1,1,0,1,0,0,1,0,1,0,0,0,0,0,0,1,1,0,0,1,0,0,0,0,0,1,1,0,0,0,1,0,0,1,1,0,0,0,0,0,0,1,0,0,1,1,0,1,0,0,1,1,1,0,0,0,1,0,0,0,0,0,0,0,0,0,0,0,0,0,0,0,0,0,0,0,0,0,0,0,0,0,0,0,0,0,0,0,0,0,0,0,0,0,0,0,0,0,0,0,0,0,0,0,0,0,0,0,0,0,0,0,0,0,0,0,0,0],"id":3,"left_children":[1,3,5,7,9,11,13,15,17,19,21,23,25,27,29,31,33,35,37,39,41,43,45,47,49,51,53,55,57,59,61,63,65,67,69,71,73,75,77,79,81,83,85,87,-1,89,91,93,95,97,99,101,103,-1,105,107,109,111,113,115,117,119,121,-1,-1,-1,-1,-1,-1,-1,-1,-1,-1,-1,-1,-1,-1,-1,-1,-1,-1,-1,-1,-1,-1,-1,-1,-1,-1,-1,-1,-1,-1,-1,-1,-1,-1,-1,-1,-1,-1,-1,-1,-1,-1,-1,-1,-1,-1,-1,-1,-1,-1,-1,-1,-1,-1,-1,-1,-1,-1,-1,-1],"loss_changes":[1.2350429E4,1.3660586E3,7.9811816E2,6.6062726E2,2.2690479E2,1.9122911E2,1.9146777E2,1.2169885E2,3.7430823E2,1.6479858E2,3.4666992E1,5.4193394E1,2.3098114E1,7.879834E1,2.9681011E1,3.1812134E1,3.7321686E1,1.15601746E2,3.1246338E1,6.591528E1,8.114769E1,2.1755644E1,1.9257812E1,3.722877E1,2.3120964E1,1.1987747E1,1.7587502E1,3.79971E1,1.2621094E1,2.8719181E1,6.3245525E0,1.572403E1,1.9252869E1,3.692559E1,1.0949631E1,3.5497467E1,5.1206818E1,1.33327265E1,1.7934998E1,1.9426514E1,3.9701935E1,4.8005203E1,6.272476E0,8.362732E0,0E0,6.173828E0,1.3311737E1,1.4264011E1,1.5005455E1,1.5172165E1,9.388466E0,3.2654572E0,8.041786E0,0E0,5.055684E0,5.640564E0,2.3267487E1,1.1416138E1,1.6279297E0,1.0163059E1,6.83214E0,3.2010345E0,5.2199364E0,0E0,0E0,0E0,0E0,0E0,0E0,0E0,0E0,0E0,0E0,0E0,0E0,0E0,0E0,0E0,0E0,0E0,0E0,0E0,0E0,0E0,0E0,0E0,0E0,0E0,0E0,0E0,0E0,0E0,0E0,0E0,0E0,0E0,0E0,0E0,0E0,0E0,0E0,0E0,0E0,0E0,0E0,0E0,0E0,0E0,0E0,0E0,0E0,0E0,0E0,0E0,0E0,0E0,0E0,0E0,0E0,0E0,0E0,0E0,0E0],"parents":[2147483647,0,0,1,1,2,2,3,3,4,4,5,5,6,6,7,7,8,8,9,9,10,10,11,11,12,12,13,13,14,14,15,15,16,16,17,17,18,18,19,19,20,20,21,21,22,22,23,23,24,24,25,25,26,26,27,27,28,28,29,29,30,30,31,31,32,32,33,33,34,34,35,35,36,36,37,37,38,38,39,39,40,40,41,41,42,42,43,43,45,45,46,46,47,47,48,48,49,49,50,50,51,51,52,52,54,54,55,55,56,56,57,57,58,58,59,59,60,60,61,61,62,62],"right_children":[2,4,6,8,10,12,14,16,18,20,22,24,26,28,30,32,34,36,38,40,42,44,46,48,50,52,54,56,58,60,62,64,66,68,70,72,74,76,78,80,82,84,86,88,-1,90,92,94,96,98,100,102,104,-1,106,108,110,112,114,116,118,120,122,-1,-1,-1,-1,-1,-1,-1,-1,-1,-1,-1,-1,-1,-1,-1,-1,-1,-1,-1,-1,-1,-1,-1,-1,-1,-1,-1,-1,-1,-1,-1,-1,-1,-1,-1,-1,-1,-1,-1,-1,-1,-1,-1,-1,-1,-1,-1,-1,-1,-1,-1,-1,-1,-1,-1,-1,-1,-1,-1,-1],"split_conditions":[5.7304835E-1,8.79343E-2,1.3890639E-1,1.7425814E-1,4.202318E-1,7.1657175E-1,8.500203E-2,4.4819972E-1,1.4595184E-1,4.9099118E-1,4.328343E-2,2.280048E-1,1.684754E-1,6.6940844E-1,1.8696044E-1,2.2585584E-1,4.925373E-1,8.3722286E-2,4.4593498E-2,4.401799E-1,1.0694903E-1,1.8320364E-1,4.1610742E-1,1.7144658E-1,3.687827E-2,1.7658672E-1,1.7192602E-2,6.3698985E-2,7.66115E-1,8.664075E-3,6.045829E-1,2.5623956E-1,1.9589547E-2,1.9272162E-1,3.3333334E-1,2.2585584E-1,4.3235382E-1,3.781071E-1,2.6194435E-1,1.4844874E-1,3.0727252E-2,4.0431645E-2,5.091066E-1,9.880596E-3,1.9875376E-1,6.7226166E-1,2.348626E-1,3.3333334E-1,2.2275517E-2,8.9271225E-2,1.3440774E-1,3.2538286E-1,6.2235463E-2,1.7217821E-1,1.5745534E-1,5.617666E-2,3.57577E-1,1.7070898E-1,3.3672377E-1,1.0005481E0,1.8307569E-2,1.7169416E-1,3.37962E-3,9.845225E-2,1.7968181E-1,1.9150421E-1,1.3578223E-1,1.4768315E-2,7.766235E-2,1.2601112E-1,7.698181E-2,-9.881135E-2,-2.2634586E-2,3.8175542E-2,-2.923288E-2,9.0980284E-2,-1.6521854E-2,9.1779545E-2,1.5283848E-1,1.2214351E-1,1.6924326E-1,1.4928901E-1,7.987044E-2,-7.413838E-2,5.2267104E-2,1.2128457E-1,1.871879E-1,9.445095E-2,-9.314281E-2,1.8819399E-1,2.0765495E-1,1.23732105E-1,1.8608949E-1,1.2194669E-2,-3.0752791E-2,1.4155832E-1,3.927631E-2,8.192147E-2,1.8925963E-1,1.9861517E-2,1.3550393E-1,-1.0510825E-1,-6.969901E-2,-5.854836E-2,8.212379E-2,-7.069741E-2,2.8330628E-2,-1.07815795E-1,-3.546416E-2,-6.817018E-2,1.4362908E-2,-1.142334E-1,-8.898083E-2,-1.20614566E-1,-5.6253165E-2,-1.0704681E-3,-7.1910135E-2,-6.366299E-2,1.6164681E-1,5.310608E-2,1.8403696E-1,-8.065214E-2,7.7291094E-2],"split_indices":[10,12,2,2,12,10,7,10,7,2,5,13,12,10,5,13,5,5,5,10,7,7,10,12,2,13,2,5,10,12,10,7,2,13,8,13,10,10,13,13,2,5,7,2,0,12,13,8,2,7,7,5,7,0,13,7,13,13,12,2,5,13,12,0,0,0,0,0,0,0,0,0,0,0,0,0,0,0,0,0,0,0,0,0,0,0,0,0,0,0,0,0,0,0,0,0,0,0,0,0,0,0,0,0,0,0,0,0,0,0,0,0,0,0,0,0,0,0,0,0,0,0,0],"split_type":[0,0,0,0,0,0,0,0,0,0,0,0,0,0,0,0,0,0,0,0,0,0,0,0,0,0,0,0,0,0,0,0,0,0,0,0,0,0,0,0,0,0,0,0,0,0,0,0,0,0,0,0,0,0,0,0,0,0,0,0,0,0,0,0,0,0,0,0,0,0,0,0,0,0,0,0,0,0,0,0,0,0,0,0,0,0,0,0,0,0,0,0,0,0,0,0,0,0,0,0,0,0,0,0,0,0,0,0,0,0,0,0,0,0,0,0,0,0,0,0,0,0,0],"sum_hessian":[1.1555557E4,5.242393E3,6.3131636E3,2.4244722E3,2.8179207E3,9.011795E2,5.4119844E3,1.3623208E3,1.0621514E3,1.573474E3,1.2444467E3,5.919714E2,3.0920813E2,5.293895E3,1.18089066E2,7.865832E2,5.757377E2,8.0894574E2,2.5320558E2,1.2738053E3,2.9966873E2,1.467916E1,1.2297675E3,3.9591693E2,1.9605447E2,2.8538898E2,2.3819147E1,7.468504E2,4.547045E3,9.238224E1,2.5706821E1,3.4387207E2,4.4271112E2,3.774357E2,1.9830197E2,3.3329993E2,4.7564584E2,4.5876957E1,2.0732861E2,9.327144E2,3.4109088E2,1.946246E2,1.0504413E2,1.0250553E1,4.4286065E0,1.068365E3,1.6140239E2,3.1310645E2,8.281046E1,1.06405426E2,8.9649055E1,1.723048E2,1.130842E2,4.943729E0,1.887542E1,3.660245E2,3.808259E2,9.3798785E2,3.609057E3,8.178508E1,1.0597162E1,1.32338E1,1.24730215E1,3.1714386E2,2.672821E1,8.428963E1,3.584215E2,1.7029079E2,2.071449E2,1.0399891E2,9.430307E1,2.5164612E2,8.165379E1,1.8118878E2,2.9445706E2,1.8764616E1,2.7112339E1,1.1233213E2,9.499649E1,1.12395615E2,8.203188E2,1.5385675E2,1.8723413E2,3.609184E1,1.5853276E2,8.179842E1,2.3245699E1,2.3431354E0,7.9074183E0,5.0944766E2,5.5891736E2,7.468375E1,8.671864E1,1.3582457E2,1.7728188E2,1.7951693E1,6.4858765E1,9.086741E1,1.5538017E1,8.290857E1,6.740488E0,1.28209E2,4.4095783E1,1.097098E2,3.374393E0,9.816612E0,9.058807E0,3.5364343E2,1.2381084E1,3.432542E2,3.757167E1,6.5825006E2,2.7973773E2,3.6026067E3,6.4501534E0,4.736545E1,3.441963E1,1.0031021E0,9.594061E0,3.5278802E0,9.70592E0,1.6920913E0,1.07809305E1],"tree_param":{"num_deleted":"0","num_feature":"14","num_nodes":"123","size_leaf_vector":"1"}},{"base_weights":[-5.667283E-3,1.015146E0,-9.1441554E-1,7.95812E-2,1.2302814E0,-1.0740645E0,-6.951843E-2,5.430821E-1,-4.2535686E-1,1.5178293E0,8.444974E-1,-8.182594E-1,-1.1637725E0,2.1998493E-1,-7.3329246E-1,1.0329099E0,3.073977E-1,-6.448772E-1,-1.4444318E-1,1.7216681E0,1.3205466E0,1.195338E0,5.8389133E-1,-9.3519145E-1,-3.064844E-1,-1.044363E0,-1.1791475E0,-3.4102906E-2,5.976863E-1,-9.142711E-1,-4.3453547E-1,-3.2438788E-1,1.1598345E0,-6.485631E-3,6.045317E-1,-5.207862E-1,-9.870991E-1,9.45788E-2,-5.9482527E-1,1.9164461E0,1.6252316E0,1.5364739E0,1.1334736E0,1.5272696E0,1.0460024E0,1.5846904E-1,7.934243E-1,-7.213897E-1,-1.0271972E0,-5.7640725E-1,2.638412E-1,-1.0959858E0,-8.3872205E-1,-1.1797141E0,1.9144E-2,-1.6971567E-1,7.5358284E-1,1.6825235E0,4.9080116E-1,-9.942749E-1,-4.854217E-1,1.1470176E0,-5.294612E-1,7.17009E-2,-8.062474E-2,8.158696E-2,1.4473341E-1,1.31024895E-2,-7.663744E-2,1.4899097E-2,8.212012E-2,-5.340747E-2,7.0692696E-2,-1.0097321E-1,2.1176152E-3,6.886271E-4,1.2324544E-1,-7.735676E-2,-8.869688E-3,5.2050937E-2,1.9203676E-1,1.2745121E-1,1.6830546E-1,1.4122202E-1,1.6849566E-1,8.4261E-2,1.3341841E-1,2.9132133E-2,1.577685E-1,7.946114E-2,1.2421354E-1,-2.2679934E-2,4.3356583E-2,5.1084846E-2,9.752399E-2,-7.4613385E-2,6.9227435E-2,-1.1616676E-1,-9.6212246E-2,-6.2465638E-2,6.3169956E-2,5.829668E-2,-5.0958853E-2,2.8596444E-3,-1.10390976E-1,-1.08452156E-1,-4.927033E-2,-1.1803068E-1,2.7283726E-3,1.3092466E-2,-4.2883374E-2,4.8823755E-2,1.3451543E-1,2.160251E-2,1.7784558E-1,1.8397978E-2,7.390772E-2,1.5724825E-2,-1.0054127E-1,-8.0534294E-2,3.844681E-3,-1.7795008E-2,1.4307915E-1,-7.141601E-2,-4.997622E-3],"categories":[],"categories_nodes":[],"categories_segments":[],"categories_sizes":[],"default_left":[0,0,0,0,0,1,1,0,1,0,0,1,0,0,0,0,1,0,0,0,0,0,0,0,0,1,0,1,0,0,0,0,0,0,0,0,0,0,0,0,0,0,1,0,1,0,0,0,0,0,0,0,0,0,0,1,0,0,0,0,0,0,0,0,0,0,0,0,0,0,0,0,0,0,0,0,0,0,0,0,0,0,0,0,0,0,0,0,0,0,0,0,0,0,0,0,0,0,0,0,0,0,0,0,0,0,0,0,0,0,0,0,0,0,0,0,0,0,0,0,0,0,0,0,0],"id":4,"left_children":[1,3,5,7,9,11,13,15,17,19,21,23,25,27,29,31,33,35,37,39,41,43,45,47,49,51,53,55,57,59,61,63,65,67,69,71,73,75,77,79,81,83,85,87,89,91,93,95,97,99,101,103,105,107,-1,109,111,113,115,117,119,121,123,-1,-1,-1,-1,-1,-1,-1,-1,-1,-1,-1,-1,-1,-1,-1,-1,-1,-1,-1,-1,-1,-1,-1,-1,-1,-1,-1,-1,-1,-1,-1,-1,-1,-1,-1,-1,-1,-1,-1,-1,-1,-1,-1,-1,-1,-1,-1,-1,-1,-1,-1,-1,-1,-1,-1,-1,-1,-1,-1,-1,-1,-1],"loss_changes":[1.0483464E4,1.0711396E3,8.063662E2,2.3336456E2,4.7873828E2,1.1443799E2,1.8295486E2,5.969243E1,2.9341072E1,9.737598E1,1.6846667E2,7.8043335E1,5.599121E0,6.365955E1,1.5234695E1,2.9394073E1,3.286838E1,1.0852028E1,2.273487E1,1.9716309E1,4.929785E1,3.744397E1,9.468085E1,2.0208496E1,3.785794E1,3.678955E0,2.7797852E0,4.257589E1,3.010376E1,5.6635895E0,1.7267664E1,8.19838E0,1.4073303E1,1.8109476E1,1.7745445E1,3.6166267E0,1.6212387E0,1.3810506E1,6.551491E0,1.1733398E0,1.4474365E1,8.389893E0,3.862152E1,1.4633362E1,2.5953552E1,3.742913E1,3.60997E1,1.1842163E1,5.3772583E0,1.0103615E1,1.9886902E1,3.0878296E0,7.2203064E0,2.383789E0,0E0,2.6529175E1,8.53389E0,2.9236069E0,1.8468586E1,2.0821838E0,5.078823E0,2.735898E0,9.296228E0,0E0,0E0,0E0,0E0,0E0,0E0,0E0,0E0,0E0,0E0,0E0,0E0,0E0,0E0,0E0,0E0,0E0,0E0,0E0,0E0,0E0,0E0,0E0,0E0,0E0,0E0,0E0,0E0,0E0,0E0,0E0,0E0,0E0,0E0,0E0,0E0,0E0,0E0,0E0,0E0,0E0,0E0,0E0,0E0,0E0,0E0,0E0,0E0,0E0,0E0,0E0,0E0,0E0,0E0,0E0,0E0,0E0,0E0,0E0,0E0,0E0,0E0],"parents":[2147483647,0,0,1,1,2,2,3,3,4,4,5,5,6,6,7,7,8,8,9,9,10,10,11,11,12,12,13,13,14,14,15,15,16,16,17,17,18,18,19,19,20,20,21,21,22,22,23,23,24,24,25,25,26,26,27,27,28,28,29,29,30,30,31,31,32,32,33,33,34,34,35,35,36,36,37,37,38,38,39,39,40,40,41,41,42,42,43,43,44,44,45,45,46,46,47,47,48,48,49,49,50,50,51,51,52,52,53,53,55,55,56,56,57,57,58,58,59,59,60,60,61,61,62,62],"right_children":[2,4,6,8,10,12,14,16,18,20,22,24,26,28,30,32,34,36,38,40,42,44,46,48,50,52,54,56,58,60,62,64,66,68,70,72,74,76,78,80,82,84,86,88,90,92,94,96,98,100,102,104,106,108,-1,110,112,114,116,118,120,122,124,-1,-1,-1,-1,-1,-1,-1,-1,-1,-1,-1,-1,-1,-1,-1,-1,-1,-1,-1,-1,-1,-1,-1,-1,-1,-1,-1,-1,-1,-1,-1,-1,-1,-1,-1,-1,-1,-1,-1,-1,-1,-1,-1,-1,-1,-1,-1,-1,-1,-1,-1,-1,-1,-1,-1,-1,-1,-1,-1,-1,-1,-1],"split_conditions":[5.6871724E-1,3.9399527E-2,1.20618306E-1,4.361668E-1,3.801442E-1,7.270317E-1,7.300591E-1,2.7673742E-1,1.701864E-1,2.3250456E-1,3.687827E-2,2.4669448E-1,8.0395997E-1,4.4421792E-1,1.7801373E-1,1.3921934E-1,1.859214E-1,9.010157E-1,8.7812257E-1,1.9589547E-2,3.687827E-2,1.9589547E-2,1.6866055E-1,8.1350154E-1,2.3678906E-2,2.0723496E-1,3.5610554E-1,3.7806842E-1,9.880596E-3,4.517592E-2,9.880596E-3,1.5146154E-1,2.2785926E-1,9.7310346E-1,8.41968E-3,2.89511E-2,2.0078902E-1,2.1412963E-1,6.6780455E-2,2.6996974E-3,1.3036351E-1,1.720477E-1,2.2183622E-1,4.3045316E-2,1.8470226E-1,1.1809812E-1,2.3678906E-2,2.9644763E-1,1.4054003E-1,7.270317E-1,8.775831E-1,2.6996974E-3,5.6940764E-3,1.1360075E-1,1.9144E-2,6.299031E-1,1.08428575E-1,5.7234555E-1,7.5307246E-3,3.3505394E-3,3.3089826E-1,1.2575965E-1,3.8685393E-1,7.17009E-2,-8.062474E-2,8.158696E-2,1.4473341E-1,1.31024895E-2,-7.663744E-2,1.4899097E-2,8.212012E-2,-5.340747E-2,7.0692696E-2,-1.0097321E-1,2.1176152E-3,6.886271E-4,1.2324544E-1,-7.735676E-2,-8.869688E-3,5.2050937E-2,1.9203676E-1,1.2745121E-1,1.6830546E-1,1.4122202E-1,1.6849566E-1,8.4261E-2,1.3341841E-1,2.9132133E-2,1.577685E-1,7.946114E-2,1.2421354E-1,-2.2679934E-2,4.3356583E-2,5.1084846E-2,9.752399E-2,-7.4613385E-2,6.9227435E-2,-1.1616676E-1,-9.6212246E-2,-6.2465638E-2,6.3169956E-2,5.829668E-2,-5.0958853E-2,2.8596444E-3,-1.10390976E-1,-1.08452156E-1,-4.927033E-2,-1.1803068E-1,2.7283726E-3,1.3092466E-2,-4.2883374E-2,4.8823755E-2,1.3451543E-1,2.160251E-2,1.7784558E-1,1.8397978E-2,7.390772E-2,1.5724825E-2,-1.0054127E-1,-8.0534294E-2,3.844681E-3,-1.7795008E-2,1.4307915E-1,-7.141601E-2,-4.997622E-3],"split_indices":[9,1,1,9,9,9,9,9,13,9,2,13,3,1,13,13,13,3,3,2,2,2,13,3,11,13,11,13,2,11,2,9,11,3,11,0,11,11,11,11,11,11,13,0,13,0,11,11,13,9,3,11,11,0,0,9,11,9,11,2,0,0,0,0,0,0,0,0,0,0,0,0,0,0,0,0,0,0,0,0,0,0,0,0,0,0,0,0,0,0,0,0,0,0,0,0,0,0,0,0,0,0,0,0,0,0,0,0,0,0,0,0,0,0,0,0,0,0,0,0,0,0,0,0,0],"split_type":[0,0,0,0,0,0,0,0,0,0,0,0,0,0,0,0,0,0,0,0,0,0,0,0,0,0,0,0,0,0,0,0,0,0,0,0,0,0,0,0,0,0,0,0,0,0,0,0,0,0,0,0,0,0,0,0,0,0,0,0,0,0,0,0,0,0,0,0,0,0,0,0,0,0,0,0,0,0,0,0,0,0,0,0,0,0,0,0,0,0,0,0,0,0,0,0,0,0,0,0,0,0,0,0,0,0,0,0,0,0,0,0,0,0,0,0,0,0,0,0,0,0,0,0,0],"sum_hessian":[1.1298948E4,5.321309E3,5.977639E3,9.951301E2,4.3261787E3,5.027406E3,9.5023334E2,5.1881525E2,4.7631485E2,2.476993E3,1.8491858E3,1.3079276E3,3.7194783E3,6.6211993E2,2.8811337E2,1.6743959E2,3.5137567E2,2.6664734E2,2.0966753E2,1.2144537E3,1.2625392E3,7.866169E2,1.062569E3,1.0639952E3,2.4393243E2,4.3214902E2,3.287329E3,3.9637778E2,2.6574216E2,1.7814053E2,1.0997283E2,1.4185707E1,1.5325389E2,1.7134755E2,1.8002814E2,1.9754028E2,6.9107056E1,1.3749019E2,7.217733E1,3.9592014E2,8.1853357E2,5.8272314E2,6.798161E2,2.4122145E2,5.453954E2,3.512235E2,7.113454E2,3.2277533E2,7.412199E2,1.6556392E2,7.8368515E1,3.4197272E2,9.0176315E1,3.28611E3,1.2191994E0,3.388277E2,5.7550095E1,2.251216E1,2.4323001E2,1.4902144E2,2.91191E1,5.599331E0,1.043735E2,4.3330646E0,9.852643E0,7.152232E1,8.173156E1,1.4579234E2,2.555521E1,5.8571354E1,1.2145678E2,1.9598398E2,1.5563003E0,6.758844E1,1.5186173E0,1.2858649E2,8.903708E0,5.2949486E1,1.9227844E1,1.4837471E0,3.944364E2,1.1911209E2,6.994215E2,3.2296756E2,2.5975555E2,2.796923E2,4.0012378E2,9.719662E0,2.315018E2,2.4124019E2,3.041552E2,1.4638683E2,2.0483669E2,2.7999292E2,4.3135248E2,3.1768686E2,5.088447E0,2.3622795E2,5.0499194E2,1.5967E2,5.893919E0,5.5652103E1,2.2716408E1,2.3744526E0,3.3959827E2,5.1475594E1,3.870072E1,3.284519E3,1.5908581E0,1.5707593E2,1.8175177E2,4.098975E1,1.6560347E1,1.581893E0,2.0930267E1,1.0956713E2,1.3366289E2,1.301883E0,1.4771954E2,1.7745068E1,1.1374035E1,1.0534735E0,4.5458574E0,7.499557E1,2.937793E1],"tree_param":{"num_deleted":"0","num_feature":"14","num_nodes":"125","size_leaf_vector":"1"}},{"base_weights":[-1.770885E-2,8.617266E-1,-9.0023005E-1,4.216395E-1,1.2516778E0,-1.0573415E0,-1.4371715E-1,-8.5677214E-2,7.8087646E-1,1.050151E0,1.5593466E0,-1.0801097E0,1.9183539E-1,1.797804E-1,-6.900571E-1,-3.5403478E-1,7.610727E-1,6.2186784E-1,1.2745163E0,3.4568235E-1,1.1315527E0,8.310484E-1,1.5926784E0,-9.164026E-1,-1.1462317E0,-1.6214624E-1,1.0905585E0,-1.116474E-1,5.0400466E-1,-7.613438E-1,1.9042012E-1,-1.3814099E-2,-6.062327E-1,8.339928E-1,-2.529345E-1,9.984822E-1,4.2949972E-1,1.0577883E0,1.4291241E0,6.940686E-2,1.1087779E0,9.9896145E-1,1.439597E0,4.955485E-1,1.5149814E0,1.6347375E0,1.2752559E0,-6.8505174E-1,-1.0072476E0,-1.0525439E0,-1.1566058E0,1.9963697E-1,-8.041029E-1,2.52873E-1,1.6460761E0,-2.3261923E-1,1.0240786E0,3.988839E-1,1.1287788E0,-5.582447E-1,-9.722031E-1,1.036142E0,-4.6064176E-2,-1.8222544E-2,4.204218E-2,-4.5836832E-2,-9.106969E-2,5.7427254E-2,1.2053361E-1,-6.90915E-2,3.7300494E-2,1.19825535E-1,6.994231E-2,1.6130975E-2,6.844024E-2,1.1424767E-1,-7.1274578E-3,1.1727331E-1,1.5853807E-1,-3.3579653E-3,1.025061E-1,1.20384835E-1,-1.845768E-2,1.1877447E-1,7.485106E-2,1.3577889E-1,1.577361E-1,1.13944374E-1,4.7593072E-4,1.661333E-1,-1.8162793E-2,1.5526634E-1,1.7113529E-1,3.9354756E-2,1.3532437E-1,-8.46502E-2,-4.4151306E-2,-1.4376658E-2,-1.0139052E-1,2.5036886E-2,-1.0580653E-1,-7.5107954E-2,-1.15821205E-1,-1.0260668E-2,8.482947E-2,3.312413E-2,-9.169185E-2,1.609494E-1,-3.797222E-2,1.9276154E-1,-3.598876E-2,-4.981824E-2,1.2915859E-2,1.2424761E-1,-1.0012678E-2,3.144578E-2,1.3467157E-1,1.4941368E-1,5.4831445E-2,-5.957032E-3,-6.4972974E-2,-9.998057E-2,4.75582E-2,1.6933933E-1,2.5353877E-2,5.320179E-2,-4.290587E-2],"categories":[],"categories_nodes":[],"categories_segments":[],"categories_sizes":[],"default_left":[0,0,0,0,0,1,1,1,1,0,0,1,0,0,0,0,0,0,0,1,1,1,0,0,0,0,0,1,0,0,0,0,0,0,0,0,0,0,0,0,0,0,0,0,0,0,0,0,0,0,0,0,0,0,0,0,1,1,0,0,1,0,0,0,0,0,0,0,0,0,0,0,0,0,0,0,0,0,0,0,0,0,0,0,0,0,0,0,0,0,0,0,0,0,0,0,0,0,0,0,0,0,0,0,0,0,0,0,0,0,0,0,0,0,0,0,0,0,0,0,0,0,0,0,0,0,0],"id":5,"left_children":[1,3,5,7,9,11,13,15,17,19,21,23,25,27,29,31,33,35,37,39,41,43,45,47,49,51,53,55,57,59,61,63,65,67,69,71,73,75,77,79,81,83,85,87,89,91,93,95,97,99,101,103,105,107,109,111,113,115,117,119,121,123,125,-1,-1,-1,-1,-1,-1,-1,-1,-1,-1,-1,-1,-1,-1,-1,-1,-1,-1,-1,-1,-1,-1,-1,-1,-1,-1,-1,-1,-1,-1,-1,-1,-1,-1,-1,-1,-1,-1,-1,-1,-1,-1,-1,-1,-1,-1,-1,-1,-1,-1,-1,-1,-1,-1,-1,-1,-1,-1,-1,-1,-1,-1,-1,-1],"loss_changes":[8.514774E3,9.4249854E2,6.506909E2,4.708281E2,1.7897803E2,1.291626E2,1.6675645E2,2.4380388E2,1.1791638E2,1.0071753E2,2.6613525E1,4.7152344E1,2.6266897E1,5.608468E1,2.2166168E1,6.987858E1,1.9305557E1,8.2585724E1,1.0802795E1,3.872987E1,6.309912E1,1.1285717E1,1.2592285E1,2.6340576E1,1.8613281E0,1.4027408E1,1.0427973E1,4.325489E1,1.7996475E1,1.3365509E1,5.4633284E0,2.5508793E1,2.0639938E1,2.2565353E1,5.217661E0,2.2261566E1,5.1858444E1,1.5080505E1,6.619934E0,1.3440168E1,6.230194E0,5.149341E1,3.1913452E0,1.1585573E1,4.467575E0,3.4250488E0,8.624741E0,1.4007599E1,5.15094E0,2.6168213E0,9.812012E-1,7.730654E0,3.085638E0,9.599321E0,8.504349E0,2.732777E1,7.5697575E0,1.8939098E1,7.643711E0,7.6154327E0,6.7892E0,2.6361136E0,5.1253176E0,0E0,0E0,0E0,0E0,0E0,0E0,0E0,0E0,0E0,0E0,0E0,0E0,0E0,0E0,0E0,0E0,0E0,0E0,0E0,0E0,0E0,0E0,0E0,0E0,0E0,0E0,0E0,0E0,0E0,0E0,0E0,0E0,0E0,0E0,0E0,0E0,0E0,0E0,0E0,0E0,0E0,0E0,0E0,0E0,0E0,0E0,0E0,0E0,0E0,0E0,0E0,0E0,0E0,0E0,0E0,0E0,0E0,0E0,0E0,0E0,0E0,0E0,0E0,0E0],"parents":[2147483647,0,0,1,1,2,2,3,3,4,4,5,5,6,6,7,7,8,8,9,9,10,10,11,11,12,12,13,13,14,14,15,15,16,16,17,17,18,18,19,19,20,20,21,21,22,22,23,23,24,24,25,25,26,26,27,27,28,28,29,29,30,30,31,31,32,32,33,33,34,34,35,35,36,36,37,37,38,38,39,39,40,40,41,41,42,42,43,43,44,44,45,45,46,46,47,47,48,48,49,49,50,50,51,51,52,52,53,53,54,54,55,55,56,56,57,57,58,58,59,59,60,60,61,61,62,62],"right_children":[2,4,6,8,10,12,14,16,18,20,22,24,26,28,30,32,34,36,38,40,42,44,46,48,50,52,54,56,58,60,62,64,66,68,70,72,74,76,78,80,82,84,86,88,90,92,94,96,98,100,102,104,106,108,110,112,114,116,118,120,122,124,126,-1,-1,-1,-1,-1,-1,-1,-1,-1,-1,-1,-1,-1,-1,-1,-1,-1,-1,-1,-1,-1,-1,-1,-1,-1,-1,-1,-1,-1,-1,-1,-1,-1,-1,-1,-1,-1,-1,-1,-1,-1,-1,-1,-1,-1,-1,-1,-1,-1,-1,-1,-1,-1,-1,-1,-1,-1,-1,-1,-1,-1,-1,-1,-1],"split_conditions":[5.8364636E-1,8.79343E-2,1.0002091E-1,8.586883E-2,5.026767E-1,9.738495E-2,7.1657175E-1,1.4933111E-1,1.1451157E-1,2.5542673E-2,2.5029005E-2,7.541119E-1,7.909536E-3,2.3678906E-2,1.7011999E-1,4.558938E-1,1.002926E0,3.488034E-2,1.3964704E-1,1.6834049E-1,1.1706759E-1,1.329676E-1,4.2023486E-1,8.133496E-1,8.0395997E-1,8.49211E-1,1.6834049E-1,9.339931E-2,8.1221026E-1,8.165442E-1,4.9228936E-2,5.099452E-2,8.73066E-1,3.2006076E-1,2.5542673E-2,4.670346E-1,1.046541E-2,5.109753E-1,5.734983E-3,3.5610554E-1,9.7443944E-1,7.731075E-2,1.8638597E-1,2.117349E-1,2.2823665E-2,6.7403513E-1,7.619665E-2,6.588756E-3,-1.6023549E-4,9.432895E-4,-1.6023549E-4,8.150939E-1,2.6609658E-3,6.1145526E-1,9.7310346E-1,3.6976033E-1,6.632058E-1,8.634738E-2,2.9448925E-2,3.568652E-2,2.5638219E-2,4.1798615E-1,3.3333334E-1,-1.8222544E-2,4.204218E-2,-4.5836832E-2,-9.106969E-2,5.7427254E-2,1.2053361E-1,-6.90915E-2,3.7300494E-2,1.19825535E-1,6.994231E-2,1.6130975E-2,6.844024E-2,1.1424767E-1,-7.1274578E-3,1.1727331E-1,1.5853807E-1,-3.3579653E-3,1.025061E-1,1.20384835E-1,-1.845768E-2,1.1877447E-1,7.485106E-2,1.3577889E-1,1.577361E-1,1.13944374E-1,4.7593072E-4,1.661333E-1,-1.8162793E-2,1.5526634E-1,1.7113529E-1,3.9354756E-2,1.3532437E-1,-8.46502E-2,-4.4151306E-2,-1.4376658E-2,-1.0139052E-1,2.5036886E-2,-1.0580653E-1,-7.5107954E-2,-1.15821205E-1,-1.0260668E-2,8.482947E-2,3.312413E-2,-9.169185E-2,1.609494E-1,-3.797222E-2,1.9276154E-1,-3.598876E-2,-4.981824E-2,1.2915859E-2,1.2424761E-1,-1.0012678E-2,3.144578E-2,1.3467157E-1,1.4941368E-1,5.4831445E-2,-5.957032E-3,-6.4972974E-2,-9.998057E-2,4.75582E-2,1.6933933E-1,2.5353877E-2,5.320179E-2,-4.290587E-2],"split_indices":[10,12,4,4,12,7,10,7,7,4,4,10,11,11,12,10,3,3,4,7,7,7,10,3,3,3,7,7,4,10,3,4,3,7,4,10,11,10,11,11,3,3,4,10,4,12,4,11,4,12,4,3,12,10,3,4,10,7,3,3,7,4,8,0,0,0,0,0,0,0,0,0,0,0,0,0,0,0,0,0,0,0,0,0,0,0,0,0,0,0,0,0,0,0,0,0,0,0,0,0,0,0,0,0,0,0,0,0,0,0,0,0,0,0,0,0,0,0,0,0,0,0,0,0,0,0,0],"split_type":[0,0,0,0,0,0,0,0,0,0,0,0,0,0,0,0,0,0,0,0,0,0,0,0,0,0,0,0,0,0,0,0,0,0,0,0,0,0,0,0,0,0,0,0,0,0,0,0,0,0,0,0,0,0,0,0,0,0,0,0,0,0,0,0,0,0,0,0,0,0,0,0,0,0,0,0,0,0,0,0,0,0,0,0,0,0,0,0,0,0,0,0,0,0,0,0,0,0,0,0,0,0,0,0,0,0,0,0,0,0,0,0,0,0,0,0,0,0,0,0,0,0,0,0,0,0,0],"sum_hessian":[1.0968946E4,5.4940903E3,5.4748564E3,2.582096E3,2.9119941E3,4.5330435E3,9.4181287E2,1.0707448E3,1.5113512E3,1.7621672E3,1.149827E3,4.452033E3,8.101033E1,5.919687E2,3.498442E2,8.1350525E2,2.5723956E2,1.144841E3,3.6651025E2,1.8307164E2,1.5790956E3,5.1455734E1,1.0983712E3,1.2851267E3,3.1669065E3,5.8706917E1,2.2303413E1,3.1209705E2,2.7987164E2,3.237662E2,2.6078005E1,3.4676553E2,4.6673972E2,2.4014742E2,1.7092136E1,3.8564413E2,7.591968E2,1.5586357E2,2.1064668E2,1.3521028E2,4.7861355E1,1.1068975E3,4.7219818E2,3.5678417E1,1.5777314E1,9.661982E2,1.3217307E2,3.6475723E2,9.203695E2,3.259317E2,2.8409749E3,3.798755E1,2.071937E1,9.473371E0,1.2830043E1,2.827727E2,2.932435E1,2.409665E2,3.890513E1,1.6677574E2,1.5699046E2,4.9596663E0,2.111834E1,2.5027919E2,9.648636E1,3.158508E2,1.508889E2,1.4281088E2,9.733653E1,9.9948E0,7.0973372E0,2.293982E2,1.5624594E2,3.7075177E2,3.8844504E2,1.4497726E2,1.0886294E1,8.298586E1,1.2766082E2,1.2292778E2,1.2282507E1,4.464858E1,3.2127757E0,6.29018E2,4.7787946E2,3.0307767E2,1.6912051E2,1.48604555E1,2.0817963E1,1.4543562E1,1.233753E0,4.7674847E2,4.894497E2,1.1232122E1,1.2094095E2,2.1785664E2,1.4690059E2,7.214805E0,9.1315466E2,1.1882471E0,3.2474344E2,1.3057223E1,2.8279177E3,2.6487467E1,1.1500081E1,1.6977342E0,1.9021635E1,2.5215514E0,6.9518194E0,1.1285209E1,1.5448344E0,1.628532E2,1.19919495E2,2.4466146E1,4.8582025E0,2.2248123E2,1.8485281E1,2.2910616E1,1.59945135E1,2.6109116E1,1.4066663E2,1.5435701E2,2.633457E0,2.063167E0,2.8964992E0,8.26072E0,1.2857619E1],"tree_param":{"num_deleted":"0","num_feature":"14","num_nodes":"127","size_leaf_vector":"1"}},{"base_weights":[-1.3417282E-2,-6.317885E-1,9.2117476E-1,-8.1865185E-1,4.8900932E-1,5.644751E-1,1.2065306E0,-9.0803456E-1,4.8523542E-1,2.8841558E-1,1.2698948E0,2.238144E-1,8.092268E-1,1.5496502E0,1.0888174E0,-1.0499238E0,-4.192661E-1,-1.17448315E-1,6.688146E-1,-5.656753E-1,5.1989996E-1,1.3464875E0,6.597626E-1,-4.1869104E-1,3.888011E-1,4.6185046E-1,9.6507883E-1,1.4066619E0,1.6477266E-1,6.044587E-1,1.1731788E0,-7.0376515E-1,-1.0840831E0,-1.8445985E-2,-6.1056966E-1,2.4596809E-1,-4.6691084E-1,4.398847E-1,1.2141403E0,2.1773808E-1,-7.9748505E-1,1.6658278E-1,8.9780873E-1,1.1224272E0,1.6382585E0,9.464428E-1,7.2760426E-2,-1.0148618E0,-1.4400125E-1,2.1130238E-1,8.238318E-1,6.7281985E-1,-7.122954E-2,1.3634031E0,8.9384544E-1,-7.169866E-2,1.4251022E0,1.2835643E-1,7.7809227E-1,1.0699196E0,1.4703343E0,-8.761588E-2,-3.818978E-2,-1.1139311E-1,-8.6802654E-2,-2.2781339E-2,2.6569596E-2,-7.8100555E-2,-3.8110163E-2,-2.616096E-2,5.935101E-2,-5.7653446E-2,4.4237744E-2,2.5097206E-2,7.0699304E-2,1.2820444E-1,-1.0002189E-1,8.047858E-2,-5.073876E-2,-9.464656E-2,-3.270192E-2,-2.0724943E-2,4.74693E-2,6.60811E-2,1.304972E-1,8.084216E-2,1.3869087E-1,3.479336E-2,1.6559091E-1,1.9939736E-2,1.591309E-1,-2.929619E-2,1.0884265E-1,-1.0674011E-1,4.845315E-2,-1.9158145E-2,1.6656761E-1,-4.006741E-2,3.289108E-2,6.5657936E-2,1.1607783E-1,1.3349494E-1,5.467531E-2,-9.218853E-2,1.2625384E-2,6.413143E-2,1.4606073E-1,7.8447655E-2,1.15579925E-1,1.5201402E-1,1.2188637E-1,-8.02729E-3,1.24193944E-1,5.8589574E-2,1.1701872E-1,9.634349E-2,1.269373E-1,1.15948476E-1,1.508634E-1],"categories":[],"categories_nodes":[],"categories_segments":[],"categories_sizes":[],"default_left":[0,0,0,1,1,0,0,0,0,0,0,0,0,0,0,0,0,0,0,0,0,0,0,0,1,0,0,0,0,0,0,1,1,0,1,0,0,0,0,0,1,1,0,0,0,0,0,0,0,0,0,0,0,0,1,0,0,1,0,1,0,0,0,0,0,0,0,0,0,0,0,0,0,0,0,0,0,0,0,0,0,0,0,0,0,0,0,0,0,0,0,0,0,0,0,0,0,0,0,0,0,0,0,0,0,0,0,0,0,0,0,0,0,0,0,0,0,0,0],"id":6,"left_children":[1,3,5,7,9,11,13,15,17,19,21,23,25,27,29,31,33,35,37,39,41,43,45,47,49,51,53,55,-1,57,59,61,63,65,67,69,71,73,75,77,79,81,83,85,87,89,91,93,95,97,99,101,103,105,107,-1,109,111,113,115,117,-1,-1,-1,-1,-1,-1,-1,-1,-1,-1,-1,-1,-1,-1,-1,-1,-1,-1,-1,-1,-1,-1,-1,-1,-1,-1,-1,-1,-1,-1,-1,-1,-1,-1,-1,-1,-1,-1,-1,-1,-1,-1,-1,-1,-1,-1,-1,-1,-1,-1,-1,-1,-1,-1,-1,-1,-1,-1],"loss_changes":[6.1430894E3,1.3401602E3,4.3013672E2,6.394839E2,1.429206E2,1.5681885E2,9.3251465E1,3.5545703E2,3.9070236E1,1.4444095E2,7.834656E0,8.376223E1,5.8856873E1,6.069092E0,7.094116E1,4.6257812E1,8.864833E1,1.067296E1,3.3208588E1,2.849405E1,7.6510574E1,8.940247E0,3.7645483E0,2.63204E1,4.8320114E1,3.841581E1,2.0209656E1,1.0817993E1,0E0,2.1573044E1,4.4217773E1,1.9641937E1,2.2362305E1,2.2345146E1,3.0311829E1,7.459931E0,4.513941E0,9.50766E0,1.3213524E1,1.5900438E1,8.140121E0,3.4416958E1,2.5885406E1,6.887886E0,1.0054169E0,7.01569E0,3.4977348E0,4.5200157E0,9.945959E0,3.2331238E1,9.4743805E0,1.9680908E1,1.6518475E1,6.9712067E0,1.75307E1,0E0,3.014557E0,1.6655075E1,1.3776688E1,2.2376831E1,2.8007202E0,0E0,0E0,0E0,0E0,0E0,0E0,0E0,0E0,0E0,0E0,0E0,0E0,0E0,0E0,0E0,0E0,0E0,0E0,0E0,0E0,0E0,0E0,0E0,0E0,0E0,0E0,0E0,0E0,0E0,0E0,0E0,0E0,0E0,0E0,0E0,0E0,0E0,0E0,0E0,0E0,0E0,0E0,0E0,0E0,0E0,0E0,0E0,0E0,0E0,0E0,0E0,0E0,0E0,0E0,0E0,0E0,0E0,0E0],"parents":[2147483647,0,0,1,1,2,2,3,3,4,4,5,5,6,6,7,7,8,8,9,9,10,10,11,11,12,12,13,13,14,14,15,15,16,16,17,17,18,18,19,19,20,20,21,21,22,22,23,23,24,24,25,25,26,26,27,27,29,29,30,30,31,31,32,32,33,33,34,34,35,35,36,36,37,37,38,38,39,39,40,40,41,41,42,42,43,43,44,44,45,45,46,46,47,47,48,48,49,49,50,50,51,51,52,52,53,53,54,54,56,56,57,57,58,58,59,59,60,60],"right_children":[2,4,6,8,10,12,14,16,18,20,22,24,26,28,30,32,34,36,38,40,42,44,46,48,50,52,54,56,-1,58,60,62,64,66,68,70,72,74,76,78,80,82,84,86,88,90,92,94,96,98,100,102,104,106,108,-1,110,112,114,116,118,-1,-1,-1,-1,-1,-1,-1,-1,-1,-1,-1,-1,-1,-1,-1,-1,-1,-1,-1,-1,-1,-1,-1,-1,-1,-1,-1,-1,-1,-1,-1,-1,-1,-1,-1,-1,-1,-1,-1,-1,-1,-1,-1,-1,-1,-1,-1,-1,-1,-1,-1,-1,-1,-1,-1,-1,-1,-1],"split_conditions":[3.1234246E-1,8.6335294E-2,9.053494E-2,1.0544493E-1,1.1451157E-1,5.46442E-1,1.9589547E-2,1.4461103E-1,4.7529694E-2,6.673269E-2,2.4392727E-1,1.4719254E-1,1.7169416E-1,6.4336956E-1,1.5247928E-1,5.245948E-1,1.0824746E-1,8.192745E-1,3.2006076E-1,8.102312E-1,2.5776547E-1,4.0229015E-2,2.6231924E-1,9.893469E-2,1.0249468E-1,7.995765E-2,1.9589547E-2,8.706844E-2,1.6477266E-1,5.5334723E-1,5.080796E-1,1.8041603E-1,2.2585584E-1,2.1592568E-1,1.6462013E-1,1.6670832E-2,2.0417485E-1,2.1717153E-1,1.0092204E0,1.6607499E-2,2.2585584E-1,1.6667975E-1,5.080796E-1,8.1586903E-1,1.2729453E-1,5.058314E-2,5.066281E-1,8.6335294E-2,1.1270177E0,8.518154E-2,2.723059E-1,2.0560384E-2,7.159128E-2,6.741653E-2,1.30214E-1,-7.169866E-2,9.154562E-3,7.280433E-2,5.026767E-1,1.1585083E-1,5.322814E-1,-8.761588E-2,-3.818978E-2,-1.1139311E-1,-8.6802654E-2,-2.2781339E-2,2.6569596E-2,-7.8100555E-2,-3.8110163E-2,-2.616096E-2,5.935101E-2,-5.7653446E-2,4.4237744E-2,2.5097206E-2,7.0699304E-2,1.2820444E-1,-1.0002189E-1,8.047858E-2,-5.073876E-2,-9.464656E-2,-3.270192E-2,-2.0724943E-2,4.74693E-2,6.60811E-2,1.304972E-1,8.084216E-2,1.3869087E-1,3.479336E-2,1.6559091E-1,1.9939736E-2,1.591309E-1,-2.929619E-2,1.0884265E-1,-1.0674011E-1,4.845315E-2,-1.9158145E-2,1.6656761E-1,-4.006741E-2,3.289108E-2,6.5657936E-2,1.1607783E-1,1.3349494E-1,5.467531E-2,-9.218853E-2,1.2625384E-2,6.413143E-2,1.4606073E-1,7.8447655E-2,1.15579925E-1,1.5201402E-1,1.2188637E-1,-8.02729E-3,1.24193944E-1,5.8589574E-2,1.1701872E-1,9.634349E-2,1.269373E-1,1.15948476E-1,1.508634E-1],"split_indices":[6,12,12,7,7,6,2,5,5,5,6,13,13,6,13,2,2,2,7,2,12,1,5,5,7,2,2,13,0,6,12,13,13,13,13,5,6,5,2,6,13,13,12,2,13,1,12,12,1,1,7,2,5,7,7,0,2,7,12,7,6,0,0,0,0,0,0,0,0,0,0,0,0,0,0,0,0,0,0,0,0,0,0,0,0,0,0,0,0,0,0,0,0,0,0,0,0,0,0,0,0,0,0,0,0,0,0,0,0,0,0,0,0,0,0,0,0,0,0],"split_type":[0,0,0,0,0,0,0,0,0,0,0,0,0,0,0,0,0,0,0,0,0,0,0,0,0,0,0,0,0,0,0,0,0,0,0,0,0,0,0,0,0,0,0,0,0,0,0,0,0,0,0,0,0,0,0,0,0,0,0,0,0,0,0,0,0,0,0,0,0,0,0,0,0,0,0,0,0,0,0,0,0,0,0,0,0,0,0,0,0,0,0,0,0,0,0,0,0,0,0,0,0,0,0,0,0,0,0,0,0,0,0,0,0,0,0,0,0,0,0],"sum_hessian":[1.0627558E4,6.3959873E3,4.2315703E3,5.482239E3,9.137485E2,1.8820068E3,2.3495632E3,5.13082E3,3.5141888E2,7.28087E2,1.8566153E2,7.8763776E2,1.0943691E3,5.970552E2,1.752508E3,3.9755667E3,1.1552533E3,8.21345E1,2.6928436E2,1.5494696E2,5.7314E2,1.6388182E2,2.177971E1,1.6061588E2,6.2702185E2,3.401583E2,7.542108E2,2.4915202E2,3.4790314E2,2.6117047E2,1.4913376E3,3.5901642E2,3.6165503E3,3.7359393E2,7.8165936E2,4.040858E1,4.172592E1,1.9093553E2,7.834884E1,3.5393482E1,1.19553474E2,2.9695215E2,2.7618787E2,9.543849E1,6.844332E1,1.4221756E1,7.557954E0,4.9812073E1,1.108038E2,4.4637872E2,1.8064316E2,2.4352126E2,9.663705E1,1.11664276E2,6.425465E2,1.8187445E0,2.4733327E2,7.025925E1,1.9091124E2,1.1101648E3,3.8117285E2,2.3267339E2,1.2634304E2,3.17392E3,4.4263043E2,2.1521382E2,1.5838011E2,4.4714322E2,3.345161E2,1.6523548E1,2.388503E1,3.7563255E1,4.1626678E0,1.1297409E2,7.796144E1,7.642624E1,1.9226024E0,1.9498234E1,1.5895249E1,9.003173E1,2.952174E1,1.3431464E2,1.6263751E2,1.7623158E2,9.9956276E1,4.548868E1,4.994981E1,1.2031235E0,6.7240204E1,7.195423E0,7.026333E0,6.080159E0,1.4777946E0,4.8404087E1,1.4079863E0,1.08836395E2,1.9674021E0,7.156786E1,3.7481085E2,1.2269086E2,5.7952297E1,3.7415886E1,2.0610538E2,1.7516577E1,7.912047E1,1.4149702E1,9.751457E1,4.5610986E2,1.8643666E2,1.6495065E2,8.238263E1,5.9954674E1,1.0304569E1,1.297868E2,6.1124435E1,7.275622E2,3.8260263E2,4.524296E1,3.3592987E2],"tree_param":{"num_deleted":"0","num_feature":"14","num_nodes":"119","size_leaf_vector":"1"}},{"base_weights":[-1.7026585E-2,7.156333E-1,-8.5668844E-1,7.010068E-2,8.967147E-1,-1.0037363E0,-1.1922989E-1,-1.9027573E-1,7.406245E-1,1.1459728E0,5.861526E-1,-1.0387843E0,-1.7047438E-1,1.1966293E-1,-6.013116E-1,-7.444302E-1,6.903043E-2,6.1366194E-1,1.2864814E0,9.2813116E-1,1.3278044E0,4.664107E-1,9.5745057E-1,-8.440141E-1,-1.1031998E0,-4.8659754E-1,2.9762655E-1,3.5650387E-2,7.731341E-1,-6.807924E-1,2.0903192E-1,-3.7221494E-1,-8.846107E-1,-1.1790862E-1,7.126421E-1,4.23497E-1,8.454461E-1,1.4251674E0,5.7040375E-1,6.4944243E-1,1.0052927E0,1.2166872E0,1.42834E0,3.4502533E-1,8.808566E-1,1.1260287E0,7.463921E-1,-9.7300494E-1,-6.519957E-1,-1.0231477E0,-1.1170974E0,-6.535192E-1,3.3168218E-1,1.4933905E-1,1.3551898E0,-3.159493E-2,7.9117674E-1,-2.8270572E-1,8.3975697E-1,-5.033761E-1,-8.8000095E-1,9.5408654E-1,-2.1677889E-1,-5.2552342E-2,2.9861704E-2,-9.504046E-2,-5.4133307E-2,3.1212067E-2,-2.6663184E-2,8.2141094E-2,-9.187349E-3,6.090453E-2,1.216432E-2,3.6251064E-2,9.6619606E-2,-1.6874189E-2,1.4674696E-1,9.054918E-2,-6.362155E-2,4.018804E-2,9.6517645E-2,9.7778186E-2,1.5515521E-1,1.1255697E-1,1.3531506E-1,1.3621657E-1,1.5047908E-1,-3.1532295E-2,4.1163087E-2,7.066587E-2,1.159021E-1,5.494984E-2,1.19413994E-1,6.1118823E-2,1.22768216E-1,-1.0009855E-1,-6.326442E-2,-7.20324E-2,-2.7378464E-2,-1.0293368E-1,-5.2574117E-2,-1.1181462E-1,-3.8829174E-2,-7.293215E-2,4.304736E-2,7.952165E-2,-3.2982755E-2,3.899723E-2,-3.50206E-2,4.2147048E-2,1.6877209E-1,1.409771E-2,-2.4223832E-2,8.88725E-2,-7.0010456E-3,-7.033919E-2,3.7577335E-2,-5.944678E-2,8.903896E-2,6.000911E-2,-5.435692E-2,-8.943663E-2,3.037609E-2,6.581895E-3,1.7210941E-1,-3.81149E-2,1.0005009E-1],"categories":[],"categories_nodes":[],"categories_segments":[],"categories_sizes":[],"default_left":[0,0,0,1,0,1,1,0,0,0,0,1,0,0,0,0,0,0,0,0,0,1,0,0,0,0,0,1,0,0,0,0,1,0,0,0,0,0,0,1,0,1,0,0,0,0,0,0,0,0,0,0,0,0,0,1,1,0,0,0,0,0,0,0,0,0,0,0,0,0,0,0,0,0,0,0,0,0,0,0,0,0,0,0,0,0,0,0,0,0,0,0,0,0,0,0,0,0,0,0,0,0,0,0,0,0,0,0,0,0,0,0,0,0,0,0,0,0,0,0,0,0,0,0,0,0,0],"id":7,"left_children":[1,3,5,7,9,11,13,15,17,19,21,23,25,27,29,31,33,35,37,39,41,43,45,47,49,51,53,55,57,59,61,63,65,67,69,71,73,75,77,79,81,83,85,87,89,91,93,95,97,99,101,103,105,107,109,111,113,115,117,119,121,123,125,-1,-1,-1,-1,-1,-1,-1,-1,-1,-1,-1,-1,-1,-1,-1,-1,-1,-1,-1,-1,-1,-1,-1,-1,-1,-1,-1,-1,-1,-1,-1,-1,-1,-1,-1,-1,-1,-1,-1,-1,-1,-1,-1,-1,-1,-1,-1,-1,-1,-1,-1,-1,-1,-1,-1,-1,-1,-1,-1,-1,-1,-1,-1,-1],"loss_changes":[6.3461914E3,6.4390234E2,5.211504E2,2.1102681E2,3.323518E2,1.1686279E2,9.223656E1,1.251877E2,2.263919E1,9.3259766E1,8.480664E1,4.7317383E1,2.4259062E1,2.9395517E1,1.7231697E1,1.415947E1,7.1571075E1,1.1815155E1,5.431732E0,2.2756897E1,1.2761475E1,7.273688E1,1.5762756E1,2.3144165E1,2.0686035E0,1.3554518E1,1.0196526E1,2.4205248E1,4.5286827E0,8.105408E0,7.9685116E0,8.147355E0,4.0249634E0,2.9584888E1,1.1790329E1,8.535175E0,6.849533E0,3.754486E0,5.3752985E0,1.8283813E1,1.1268005E1,6.2267456E0,1.3685303E0,4.959384E1,1.5087067E1,9.45401E0,1.2926628E1,4.816345E0,9.8502655E0,8.100586E-1,1.4375E0,7.0058975E0,5.538793E0,7.2623525E0,1.7820644E0,1.5955952E1,3.3331985E0,1.474596E0,4.7147446E0,6.103859E0,2.18647E0,6.0746984E0,3.6592908E0,0E0,0E0,0E0,0E0,0E0,0E0,0E0,0E0,0E0,0E0,0E0,0E0,0E0,0E0,0E0,0E0,0E0,0E0,0E0,0E0,0E0,0E0,0E0,0E0,0E0,0E0,0E0,0E0,0E0,0E0,0E0,0E0,0E0,0E0,0E0,0E0,0E0,0E0,0E0,0E0,0E0,0E0,0E0,0E0,0E0,0E0,0E0,0E0,0E0,0E0,0E0,0E0,0E0,0E0,0E0,0E0,0E0,0E0,0E0,0E0,0E0,0E0,0E0,0E0],"parents":[2147483647,0,0,1,1,2,2,3,3,4,4,5,5,6,6,7,7,8,8,9,9,10,10,11,11,12,12,13,13,14,14,15,15,16,16,17,17,18,18,19,19,20,20,21,21,22,22,23,23,24,24,25,25,26,26,27,27,28,28,29,29,30,30,31,31,32,32,33,33,34,34,35,35,36,36,37,37,38,38,39,39,40,40,41,41,42,42,43,43,44,44,45,45,46,46,47,47,48,48,49,49,50,50,51,51,52,52,53,53,54,54,55,55,56,56,57,57,58,58,59,59,60,60,61,61,62,62],"right_children":[2,4,6,8,10,12,14,16,18,20,22,24,26,28,30,32,34,36,38,40,42,44,46,48,50,52,54,56,58,60,62,64,66,68,70,72,74,76,78,80,82,84,86,88,90,92,94,96,98,100,102,104,106,108,110,112,114,116,118,120,122,124,126,-1,-1,-1,-1,-1,-1,-1,-1,-1,-1,-1,-1,-1,-1,-1,-1,-1,-1,-1,-1,-1,-1,-1,-1,-1,-1,-1,-1,-1,-1,-1,-1,-1,-1,-1,-1,-1,-1,-1,-1,-1,-1,-1,-1,-1,-1,-1,-1,-1,-1,-1,-1,-1,-1,-1,-1,-1,-1,-1,-1,-1,-1,-1,-1],"split_conditions":[5.871148E-1,3.228644E-2,1.09539255E-1,1.5685003E-1,3.955143E-1,4.1358117E-2,7.193508E-1,5.007421E-2,3.3820352E-1,1.753158E-1,5.1975214E-1,7.354755E-1,1.3440774E-1,8.3570856E-1,1.684754E-1,4.0357777E-1,1.7374292E-1,3.2006076E-1,2.7407004E-2,7.092491E-2,5.066281E-1,1.0694903E-1,5E-1,7.835242E-2,7.9001206E-1,7.859472E-2,8.900316E-3,8.500203E-2,1.9753155E-1,8.1380755E-1,3.3333334E-1,2.064192E-2,4.1358117E-2,3.781071E-1,4.965844E-1,4.3649638E-1,4.20491E-2,1.8104409E-3,3.5791984E-1,1.6042382E-1,9.1909564E-1,1.0399942E-1,8.3943886E-1,9.027725E-2,7.6822108E-3,6.1211657E-2,9.790461E-1,8.6335294E-2,8.664075E-3,1.7374292E-1,3.3769253E-1,9.2677595E-3,6.5287566E-1,3.3333334E-1,2.0100508E-2,6.456217E-1,6.8684226E-1,1.1380372E0,1.8265836E-2,9.778817E-2,1.3146791E0,3.8685393E-1,8.478269E-1,-5.2552342E-2,2.9861704E-2,-9.504046E-2,-5.4133307E-2,3.1212067E-2,-2.6663184E-2,8.2141094E-2,-9.187349E-3,6.090453E-2,1.216432E-2,3.6251064E-2,9.6619606E-2,-1.6874189E-2,1.4674696E-1,9.054918E-2,-6.362155E-2,4.018804E-2,9.6517645E-2,9.7778186E-2,1.5515521E-1,1.1255697E-1,1.3531506E-1,1.3621657E-1,1.5047908E-1,-3.1532295E-2,4.1163087E-2,7.066587E-2,1.159021E-1,5.494984E-2,1.19413994E-1,6.1118823E-2,1.22768216E-1,-1.0009855E-1,-6.326442E-2,-7.20324E-2,-2.7378464E-2,-1.0293368E-1,-5.2574117E-2,-1.1181462E-1,-3.8829174E-2,-7.293215E-2,4.304736E-2,7.952165E-2,-3.2982755E-2,3.899723E-2,-3.50206E-2,4.2147048E-2,1.6877209E-1,1.409771E-2,-2.4223832E-2,8.88725E-2,-7.0010456E-3,-7.033919E-2,3.7577335E-2,-5.944678E-2,8.903896E-2,6.000911E-2,-5.435692E-2,-8.943663E-2,3.037609E-2,6.581895E-3,1.7210941E-1,-3.81149E-2,1.0005009E-1],"split_indices":[10,0,0,7,10,7,10,5,12,12,0,10,7,0,12,10,12,7,0,0,12,7,8,5,10,4,12,7,5,10,8,0,7,10,10,10,5,4,5,7,0,7,12,5,12,7,0,12,12,12,12,12,10,8,0,10,10,0,7,4,0,0,4,0,0,0,0,0,0,0,0,0,0,0,0,0,0,0,0,0,0,0,0,0,0,0,0,0,0,0,0,0,0,0,0,0,0,0,0,0,0,0,0,0,0,0,0,0,0,0,0,0,0,0,0,0,0,0,0,0,0,0,0,0,0,0,0],"split_type":[0,0,0,0,0,0,0,0,0,0,0,0,0,0,0,0,0,0,0,0,0,0,0,0,0,0,0,0,0,0,0,0,0,0,0,0,0,0,0,0,0,0,0,0,0,0,0,0,0,0,0,0,0,0,0,0,0,0,0,0,0,0,0,0,0,0,0,0,0,0,0,0,0,0,0,0,0,0,0,0,0,0,0,0,0,0,0,0,0,0,0,0,0,0,0,0,0,0,0,0,0,0,0,0,0,0,0,0,0,0,0,0,0,0,0,0,0,0,0,0,0,0,0,0,0,0,0],"sum_hessian":[1.0313886E4,5.507969E3,4.805916E3,1.2069019E3,4.3010674E3,4.006639E3,7.992771E2,8.6984265E2,3.3705923E2,2.384539E3,1.9165286E3,3.8446802E3,1.6195877E2,5.3494165E2,2.6433548E2,2.7668265E2,5.9316003E2,2.7517877E2,6.188047E1,1.0876248E3,1.2969143E3,1.4508818E3,4.656467E2,9.5902545E2,2.8856548E3,9.66491E1,6.530966E1,4.7493668E2,6.0004967E1,2.4087013E2,2.346534E1,7.6694435E1,1.999882E2,4.6028546E2,1.3287457E2,1.527136E2,1.2246519E2,5.1010746E1,1.0869724E1,2.3787917E2,8.497456E2,6.2226086E2,6.7465344E2,1.1236213E3,3.2726044E2,2.5646558E2,2.0918112E2,5.712282E2,3.8779724E2,4.3790015E2,2.4477546E3,8.044118E1,1.6207924E1,5.8279186E1,7.030476E0,4.3699985E2,3.7936813E1,3.3690376E0,5.663593E1,1.2926917E2,1.1160096E2,8.0824995E0,1.538284E1,6.260388E1,1.4090557E1,1.6633849E2,3.3649723E1,1.1799817E2,3.422873E2,1.1703119E2,1.5843378E1,9.3947044E1,5.8766544E1,2.5296156E1,9.716903E1,1.2415411E0,4.9769207E1,8.702525E0,2.1671994E0,1.34608E2,1.03271164E2,8.116586E2,3.8086937E1,3.786691E2,2.4359174E2,3.717189E2,3.0293454E2,1.02607185E2,1.0210142E3,2.0341446E2,1.2384597E2,2.8055593E1,2.2840999E2,1.6507748E2,4.410363E1,5.260421E2,4.5186085E1,3.2769144E2,6.01058E1,4.3146213E2,6.438017E0,2.4437036E3,4.0509005E0,7.548949E1,4.9516916E0,9.4111805E0,6.7967434E0,3.9480556E1,1.879863E1,2.4417388E0,4.5887375E0,2.4038907E2,1.9661078E2,3.404814E1,3.8886724E0,2.014083E0,1.3549548E0,1.5649939E0,5.507094E1,4.0535035E0,1.2521567E2,1.10504425E2,1.0965351E0,4.248336E0,3.8341644E0,1.4157966E1,1.2248747E0],"tree_param":{"num_deleted":"0","num_feature":"14","num_nodes":"127","size_leaf_vector":"1"}},{"base_weights":[-1.9720899E-2,6.2462986E-1,-8.554956E-1,9.199976E-1,2.0300375E-1,-9.962458E-1,-2.1191622E-1,6.9526047E-1,1.1689348E0,-3.0466032E-1,4.7799146E-1,-7.5193244E-1,-1.0794822E0,-2.609619E-2,-7.567787E-1,2.5763437E-1,8.225483E-1,1.0378462E0,1.3274478E0,-1.4489527E-1,-5.354081E-1,2.1608248E-1,6.3242865E-1,-8.027644E-1,-2.9890317E-1,-9.991786E-1,-1.1083456E-1,-2.4899195E-1,2.6570523E-1,-8.098447E-1,2.1830986E-1,1.01716824E-1,5.916313E-1,7.0425636E-1,9.980264E-1,7.261166E-1,1.130158E0,6.425193E-1,1.3437923E0,-2.0589091E-1,6.9269186E-1,-4.2218626E-1,-7.76582E-1,6.513226E-2,4.8251614E-1,5.072841E-1,8.6836684E-1,-8.2979774E-1,-4.4281313E-1,-5.790057E-1,8.167306E-2,-1.7183088E-1,-1.0051028E0,-2.7725453E-2,-4.520751E-1,1.547757E-1,7.568668E-1,-8.564194E-1,-2.2422923E-1,-3.6510164E-1,9.7851217E-1,-2.4288476E-2,2.2358201E-2,3.9246976E-2,8.241529E-2,1.1457836E-1,6.541262E-2,5.409223E-2,1.0332358E-1,8.725132E-2,4.4019092E-2,1.02025285E-1,1.3109072E-1,1.1029848E-1,-2.6743084E-2,1.3872115E-1,1.2554745E-1,-2.5858765E-2,1.4299615E-2,1.9340893E-2,1.15331136E-1,-7.9472475E-2,-3.553153E-2,2.3946516E-2,-7.905338E-2,2.181386E-2,-2.0068297E-2,7.3137686E-2,2.3670236E-2,6.764281E-2,3.6811948E-2,7.708904E-2,1.2509225E-1,2.3600406E-3,-8.400911E-2,4.506212E-2,-4.925896E-2,-6.70226E-2,5.64281E-2,-3.7217136E-2,7.016775E-2,8.5415564E-2,-5.4472405E-2,-1.0191242E-1,-6.079008E-2,-4.5379248E-2,1.6688254E-2,-6.1460078E-2,-1.7091079E-2,7.691628E-3,8.809035E-2,1.1745405E-1,3.4408107E-2,-9.1320254E-2,-5.315047E-2,2.4201082E-2,-6.81945E-2,-9.201613E-2,2.9798139E-2,1.5765135E-1,-3.7725177E-2],"categories":[],"categories_nodes":[],"categories_segments":[],"categories_sizes":[],"default_left":[0,0,0,0,0,1,1,0,0,0,0,0,0,0,0,0,0,0,0,0,0,0,0,0,0,0,0,0,0,0,0,0,0,0,0,0,0,0,0,0,0,0,0,0,0,0,0,0,0,0,0,0,0,0,0,0,0,0,0,0,0,0,0,0,0,0,0,0,0,0,0,0,0,0,0,0,0,0,0,0,0,0,0,0,0,0,0,0,0,0,0,0,0,0,0,0,0,0,0,0,0,0,0,0,0,0,0,0,0,0,0,0,0,0,0,0,0,0,0,0,0],"id":8,"left_children":[1,3,5,7,9,11,13,15,17,19,21,23,25,27,29,31,33,35,37,39,41,43,45,47,49,51,-1,53,55,57,59,61,63,65,67,69,71,73,75,77,79,81,83,85,87,89,91,93,95,97,99,101,103,105,107,109,111,113,115,117,119,-1,-1,-1,-1,-1,-1,-1,-1,-1,-1,-1,-1,-1,-1,-1,-1,-1,-1,-1,-1,-1,-1,-1,-1,-1,-1,-1,-1,-1,-1,-1,-1,-1,-1,-1,-1,-1,-1,-1,-1,-1,-1,-1,-1,-1,-1,-1,-1,-1,-1,-1,-1,-1,-1,-1,-1,-1,-1,-1,-1],"loss_changes":[5.381409E3,7.0250806E2,3.9384546E2,1.8480396E2,3.248241E2,7.177197E1,7.914708E1,9.7055176E1,3.130127E1,3.0069977E1,6.0899323E1,2.0723022E1,5.0578613E0,3.8057262E1,1.0464279E1,2.0504507E1,2.7366272E1,2.408197E1,7.065918E0,2.489942E1,8.797676E0,2.2541136E1,2.7571991E1,7.5911255E0,1.0006926E1,3.3240967E0,0E0,1.4891174E1,1.3691278E1,4.9565506E0,5.257642E0,1.1410884E1,5.4870033E0,1.7203857E1,8.165894E0,8.009132E0,1.1890381E1,8.014804E0,9.075928E-1,8.355511E0,7.3944025E0,5.4378395E0,1.6859055E0,1.4662174E1,1.2234386E1,1.43997345E1,1.124472E1,6.692383E0,2.8581963E0,6.003927E0,1.1653596E1,2.867295E0,3.3244019E0,1.3325201E1,7.794735E0,1.1691819E1,7.6019783E0,2.734169E0,3.4219186E0,2.8430812E0,4.704717E0,0E0,0E0,0E0,0E0,0E0,0E0,0E0,0E0,0E0,0E0,0E0,0E0,0E0,0E0,0E0,0E0,0E0,0E0,0E0,0E0,0E0,0E0,0E0,0E0,0E0,0E0,0E0,0E0,0E0,0E0,0E0,0E0,0E0,0E0,0E0,0E0,0E0,0E0,0E0,0E0,0E0,0E0,0E0,0E0,0E0,0E0,0E0,0E0,0E0,0E0,0E0,0E0,0E0,0E0,0E0,0E0,0E0,0E0,0E0,0E0],"parents":[2147483647,0,0,1,1,2,2,3,3,4,4,5,5,6,6,7,7,8,8,9,9,10,10,11,11,12,12,13,13,14,14,15,15,16,16,17,17,18,18,19,19,20,20,21,21,22,22,23,23,24,24,25,25,27,27,28,28,29,29,30,30,31,31,32,32,33,33,34,34,35,35,36,36,37,37,38,38,39,39,40,40,41,41,42,42,43,43,44,44,45,45,46,46,47,47,48,48,49,49,50,50,51,51,52,52,53,53,54,54,55,55,56,56,57,57,58,58,59,59,60,60],"right_children":[2,4,6,8,10,12,14,16,18,20,22,24,26,28,30,32,34,36,38,40,42,44,46,48,50,52,-1,54,56,58,60,62,64,66,68,70,72,74,76,78,80,82,84,86,88,90,92,94,96,98,100,102,104,106,108,110,112,114,116,118,120,-1,-1,-1,-1,-1,-1,-1,-1,-1,-1,-1,-1,-1,-1,-1,-1,-1,-1,-1,-1,-1,-1,-1,-1,-1,-1,-1,-1,-1,-1,-1,-1,-1,-1,-1,-1,-1,-1,-1,-1,-1,-1,-1,-1,-1,-1,-1,-1,-1,-1,-1,-1,-1,-1,-1,-1,-1,-1,-1,-1],"split_conditions":[6.013554E-1,4.2385033E-1,1.0558449E-1,1.753158E-1,7.786401E-2,7.322744E-1,7.721931E-1,4.8218567E-2,5.080796E-1,5E-1,1.3410124E-2,6.5247044E-2,8.245769E-1,1.046541E-2,1.7168951E-1,9.2677595E-3,6.200889E-1,8.518154E-2,1.6411737E-2,2.1262893E-1,5.539215E-1,3.8377768E-1,6.200889E-1,8.8987194E-2,6.7522363E-3,2.6996974E-3,-1.1083456E-1,3.3333334E-1,6.200889E-1,4.9763045E-1,3.7266514E-1,7.544653E-3,2.0806944E-2,1.8645525E-1,9.541121E-2,6.666667E-1,6.4439017E-1,2.2351797E-1,1.6306503E-1,2.8792003E-1,3.372587E-1,2.5150299E-3,3.1646937E-3,1E0,5.170604E-1,4.9466845E-1,8.1096476E-1,2.6996974E-3,1.5829892E-3,7.683812E-1,6.663241E-1,7.4939126E-1,8.6335294E-2,1.6479544E-1,4.3281987E-1,8.4672797E-1,1E0,4.58718E-1,8.3343834E-1,1.3133077E-1,5.026767E-1,-2.4288476E-2,2.2358201E-2,3.9246976E-2,8.241529E-2,1.1457836E-1,6.541262E-2,5.409223E-2,1.0332358E-1,8.725132E-2,4.4019092E-2,1.02025285E-1,1.3109072E-1,1.1029848E-1,-2.6743084E-2,1.3872115E-1,1.2554745E-1,-2.5858765E-2,1.4299615E-2,1.9340893E-2,1.15331136E-1,-7.9472475E-2,-3.553153E-2,2.3946516E-2,-7.905338E-2,2.181386E-2,-2.0068297E-2,7.3137686E-2,2.3670236E-2,6.764281E-2,3.6811948E-2,7.708904E-2,1.2509225E-1,2.3600406E-3,-8.400911E-2,4.506212E-2,-4.925896E-2,-6.70226E-2,5.64281E-2,-3.7217136E-2,7.016775E-2,8.5415564E-2,-5.4472405E-2,-1.0191242E-1,-6.079008E-2,-4.5379248E-2,1.6688254E-2,-6.1460078E-2,-1.7091079E-2,7.691628E-3,8.809035E-2,1.1745405E-1,3.4408107E-2,-9.1320254E-2,-5.315047E-2,2.4201082E-2,-6.81945E-2,-9.201613E-2,2.9798139E-2,1.5765135E-1,-3.7725177E-2],"split_indices":[9,9,1,12,1,10,10,1,12,8,11,1,9,11,12,12,6,1,1,11,9,1,6,11,11,11,0,8,6,6,1,1,1,9,1,8,6,9,9,6,12,6,11,8,9,9,1,11,1,9,10,9,12,6,1,1,8,1,9,11,12,0,0,0,0,0,0,0,0,0,0,0,0,0,0,0,0,0,0,0,0,0,0,0,0,0,0,0,0,0,0,0,0,0,0,0,0,0,0,0,0,0,0,0,0,0,0,0,0,0,0,0,0,0,0,0,0,0,0,0,0],"split_type":[0,0,0,0,0,0,0,0,0,0,0,0,0,0,0,0,0,0,0,0,0,0,0,0,0,0,0,0,0,0,0,0,0,0,0,0,0,0,0,0,0,0,0,0,0,0,0,0,0,0,0,0,0,0,0,0,0,0,0,0,0,0,0,0,0,0,0,0,0,0,0,0,0,0,0,0,0,0,0,0,0,0,0,0,0,0,0,0,0,0,0,0,0,0,0,0,0,0,0,0,0,0,0,0,0,0,0,0,0,0,0,0,0,0,0,0,0,0,0,0,0],"sum_hessian":[9.990744E3,5.641564E3,4.3491807E3,3.3168103E3,2.324754E3,3.5682578E3,7.8092267E2,1.745127E3,1.5716832E3,8.1677325E2,1.5079806E3,9.093091E2,2.6589487E3,5.831074E2,1.978152E2,3.9389777E2,1.3512292E3,8.6438934E2,7.072939E2,4.8358017E2,3.3319308E2,5.6025214E2,9.4772845E2,8.168794E2,9.2429665E1,7.124345E2,1.9465143E3,3.3066898E2,2.5243848E2,1.8776613E2,1.004908E1,2.6942734E2,1.2447042E2,8.1012646E2,5.411027E2,1.995134E2,6.64876E2,1.742439E1,6.898695E2,4.5145782E2,3.212235E1,2.2861684E2,1.0457623E2,3.5842685E2,2.0182527E2,6.213218E2,3.264067E2,7.58601E2,5.8278374E1,5.2942677E1,3.9486984E1,5.278412E0,7.0715607E2,1.5879382E2,1.7187515E2,2.0700192E2,4.543655E1,1.7350465E2,1.4261469E1,5.97972E0,4.06936E0,7.012888E1,1.9929846E2,6.8492485E1,5.5977932E1,8.03733E1,7.297532E2,3.9869026E1,5.012337E2,1.3059567E2,6.891772E1,4.1759857E2,2.4727737E2,1.1428864E1,5.995528E0,4.526357E2,2.372338E2,3.9244135E2,5.901648E1,1.6095602E1,1.6026747E1,3.3135345E1,1.9548149E2,1.1975827E0,1.03378654E2,2.275981E2,1.3082877E2,9.9309494E1,1.02515785E2,2.787102E2,3.4261157E2,2.625287E2,6.3878048E1,9.02551E0,7.495755E2,2.6505687E0,5.5627808E1,4.941383E1,3.5288453E0,2.3029255E1,1.6457731E1,1.0630087E0,4.215403E0,6.81532E2,2.5624115E1,4.9371025E1,1.094228E2,1.08164986E2,6.3710163E1,1.8795436E2,1.904757E1,2.1667288E1,2.3769264E1,1.4615207E2,2.7352592E1,7.2984056E0,6.9630632E0,3.0439558E0,2.9357643E0,2.7108386E0,1.3585212E0],"tree_param":{"num_deleted":"0","num_feature":"14","num_nodes":"121","size_leaf_vector":"1"}},{"base_weights":[-1.5606265E-2,-5.488305E-1,6.9716614E-1,-9.1485953E-1,-9.5825195E-2,3.2421574E-1,8.572814E-1,-4.8255613E-1,-9.8522276E-1,8.962353E-1,-1.6694726E-1,-1.16237655E-1,3.9210898E-1,1.2654998E0,7.4599683E-1,-1.7983708E-1,-6.1144805E-1,-1.0108384E0,-8.224853E-1,-3.5868183E-2,1.04388E0,-3.5472336E-1,9.802786E-3,1.435224E-1,-6.64432E-1,8.3635473E-1,3.3503893E-1,1.1540334E0,1.3646564E0,7.56436E-1,-3.001476E-1,7.1422175E-2,-3.7812588E-1,-7.414624E-1,-5.1984453E-1,-9.701022E-1,-1.0607077E0,-7.227631E-1,-1.057394E0,-3.0958316E-1,7.4689084E-1,1.3142551E0,5.6349254E-1,-1.9007145E-1,-5.274339E-1,-1.9477302E-1,1.3501249E-1,-5.0385684E-2,4.8238418E-1,-7.2637767E-1,3.845451E-1,7.402293E-1,1.1135573E0,2.7376932E-1,5.405111E-1,1.0089244E0,1.2657253E0,1.3747661E-1,1.7019205E-2,6.4563906E-1,8.380007E-1,2.6096E-1,-7.9181296E-1,-4.860168E-2,4.690852E-2,-5.5882037E-2,-6.7827962E-3,1.3757186E-3,-7.682378E-2,-5.4903783E-2,-4.8494805E-3,-9.859987E-2,-4.315299E-2,-7.216948E-2,-1.0635879E-1,-8.6893454E-2,-4.5084532E-2,-1.073079E-1,-5.138698E-2,2.4456218E-2,-7.16239E-2,1.0663258E-1,1.9979494E-2,1.3595177E-1,5.9511907E-2,-1.8443225E-2,7.8910016E-2,-3.0044302E-2,-2.4581058E-3,-5.607099E-2,2.1675931E-2,3.2282025E-3,-2.840381E-2,3.295494E-2,7.25886E-4,-7.875546E-2,2.8706877E-3,1.04186766E-1,8.239052E-3,-4.401612E-2,-8.629566E-2,1.1614448E-1,-6.481154E-2,1.0746956E-1,5.977056E-2,1.3499244E-1,8.305733E-2,1.8177029E-2,4.4363018E-2,1.6865972E-2,7.295114E-2,1.1533081E-1,7.293098E-2,1.3088308E-1,9.258892E-2,2.7156744E-2,-2.2814894E-2,6.2464267E-2,1.03097975E-1,9.340661E-2,7.082261E-2,-2.7387615E-3,1.5079091E-1,-1.02097236E-1,3.460147E-3],"categories":[],"categories_nodes":[],"categories_segments":[],"categories_sizes":[],"default_left":[0,0,0,0,0,0,0,0,0,0,0,0,1,0,0,0,0,0,0,0,0,0,0,0,0,0,0,0,0,0,0,0,0,0,0,0,0,0,0,0,0,0,0,0,0,0,0,0,0,0,0,0,0,0,0,0,0,0,0,0,0,0,0,0,0,0,0,0,0,0,0,0,0,0,0,0,0,0,0,0,0,0,0,0,0,0,0,0,0,0,0,0,0,0,0,0,0,0,0,0,0,0,0,0,0,0,0,0,0,0,0,0,0,0,0,0,0,0,0,0,0,0,0,0,0],"id":9,"left_children":[1,3,5,7,9,11,13,15,17,19,21,23,25,27,29,31,33,35,37,39,41,43,45,47,49,51,53,55,57,59,61,63,65,67,69,71,73,75,77,79,81,83,85,87,89,91,93,95,97,99,101,103,105,107,109,111,113,-1,115,117,119,121,123,-1,-1,-1,-1,-1,-1,-1,-1,-1,-1,-1,-1,-1,-1,-1,-1,-1,-1,-1,-1,-1,-1,-1,-1,-1,-1,-1,-1,-1,-1,-1,-1,-1,-1,-1,-1,-1,-1,-1,-1,-1,-1,-1,-1,-1,-1,-1,-1,-1,-1,-1,-1,-1,-1,-1,-1,-1,-1,-1,-1,-1,-1],"loss_changes":[3.6761902E3,9.173755E2,2.4690308E2,9.261157E1,1.7470045E2,3.727368E1,1.3058984E2,1.6680717E1,1.0135986E1,2.283403E1,7.6645706E1,2.3881727E1,2.7072998E1,5.2645264E0,2.5100708E1,6.5001826E0,3.204216E0,3.579834E0,7.743088E0,5.291356E0,1.783699E1,3.1741364E1,3.0521206E1,7.525446E0,3.780531E0,2.4306335E0,1.1909157E1,3.54953E0,4.3636475E0,1.9841064E1,6.612227E0,1.3118183E1,4.0426226E0,2.4823456E0,2.4525223E0,1.03654785E1,2.1777344E-1,9.866791E0,3.5279846E-1,4.2777333E0,9.075167E-1,2.1454773E0,9.132647E0,1.0491531E1,1.3640686E1,9.178707E0,1.836638E1,4.3088484E0,9.233666E0,1.6225395E0,3.687725E0,3.823475E0,8.4994125E-1,1.1479824E1,1.5265636E1,4.586914E0,1.1956177E0,0E0,2.7477488E-1,7.128662E0,1.5491882E1,4.2106423E0,2.4259095E0,0E0,0E0,0E0,0E0,0E0,0E0,0E0,0E0,0E0,0E0,0E0,0E0,0E0,0E0,0E0,0E0,0E0,0E0,0E0,0E0,0E0,0E0,0E0,0E0,0E0,0E0,0E0,0E0,0E0,0E0,0E0,0E0,0E0,0E0,0E0,0E0,0E0,0E0,0E0,0E0,0E0,0E0,0E0,0E0,0E0,0E0,0E0,0E0,0E0,0E0,0E0,0E0,0E0,0E0,0E0,0E0,0E0,0E0,0E0,0E0,0E0,0E0],"parents":[2147483647,0,0,1,1,2,2,3,3,4,4,5,5,6,6,7,7,8,8,9,9,10,10,11,11,12,12,13,13,14,14,15,15,16,16,17,17,18,18,19,19,20,20,21,21,22,22,23,23,24,24,25,25,26,26,27,27,28,28,29,29,30,30,31,31,32,32,33,33,34,34,35,35,36,36,37,37,38,38,39,39,40,40,41,41,42,42,43,43,44,44,45,45,46,46,47,47,48,48,49,49,50,50,51,51,52,52,53,53,54,54,55,55,56,56,58,58,59,59,60,60,61,61,62,62],"right_children":[2,4,6,8,10,12,14,16,18,20,22,24,26,28,30,32,34,36,38,40,42,44,46,48,50,52,54,56,58,60,62,64,66,68,70,72,74,76,78,80,82,84,86,88,90,92,94,96,98,100,102,104,106,108,110,112,114,-1,116,118,120,122,124,-1,-1,-1,-1,-1,-1,-1,-1,-1,-1,-1,-1,-1,-1,-1,-1,-1,-1,-1,-1,-1,-1,-1,-1,-1,-1,-1,-1,-1,-1,-1,-1,-1,-1,-1,-1,-1,-1,-1,-1,-1,-1,-1,-1,-1,-1,-1,-1,-1,-1,-1,-1,-1,-1,-1,-1,-1,-1,-1,-1,-1,-1],"split_conditions":[3.1234246E-1,7.672175E-2,5.46442E-1,8.0395997E-1,1.4367583E-2,9.4550066E-2,1.9589547E-2,2.371105E-1,4.9154814E-2,1.4876835E-2,2.1343637E-1,8.73066E-1,1.9589547E-2,6.489036E-1,9.7202504E-1,9.828043E-3,3.6754515E-2,9.5438427E-1,1.002926E0,2.7727183E-2,9.929754E-3,8.0865866E-1,2.4631713E-2,4.4491628E-1,1.0093522E0,5.070116E-1,3.750855E-1,4.196997E-1,7.2026676E-1,6.267559E-1,6.267559E-1,1.66372E-2,4.9750212E-1,5.3879636E-4,2.4392727E-1,1.3154776E-1,6.254665E-4,2.0431947E-2,2.2345549E-1,4.310246E-3,6.951104E-2,7.2026676E-1,1.4461103E-1,4.5470294E-1,1.9642544E-1,8.1267846E-1,9.828043E-3,6.432481E-3,5.7213534E-2,3.0093675E-2,9.9068236E-1,3.5003886E-1,5.2292806E-1,4.8828238E-1,8.008702E-2,9.880596E-3,9.169774E-1,1.3747661E-1,6.2484443E-2,9.2257303E-1,6.861039E-2,1.0060186E0,8.267537E-2,-4.860168E-2,4.690852E-2,-5.5882037E-2,-6.7827962E-3,1.3757186E-3,-7.682378E-2,-5.4903783E-2,-4.8494805E-3,-9.859987E-2,-4.315299E-2,-7.216948E-2,-1.0635879E-1,-8.6893454E-2,-4.5084532E-2,-1.073079E-1,-5.138698E-2,2.4456218E-2,-7.16239E-2,1.0663258E-1,1.9979494E-2,1.3595177E-1,5.9511907E-2,-1.8443225E-2,7.8910016E-2,-3.0044302E-2,-2.4581058E-3,-5.607099E-2,2.1675931E-2,3.2282025E-3,-2.840381E-2,3.295494E-2,7.25886E-4,-7.875546E-2,2.8706877E-3,1.04186766E-1,8.239052E-3,-4.401612E-2,-8.629566E-2,1.1614448E-1,-6.481154E-2,1.0746956E-1,5.977056E-2,1.3499244E-1,8.305733E-2,1.8177029E-2,4.4363018E-2,1.6865972E-2,7.295114E-2,1.1533081E-1,7.293098E-2,1.3088308E-1,9.258892E-2,2.7156744E-2,-2.2814894E-2,6.2464267E-2,1.03097975E-1,9.340661E-2,7.082261E-2,-2.7387615E-3,1.5079091E-1,-1.02097236E-1,3.460147E-3],"split_indices":[6,5,6,3,2,5,2,2,5,0,5,3,2,6,3,6,5,3,3,6,6,3,4,6,2,6,3,5,3,6,6,0,3,6,6,6,0,1,6,6,6,3,5,3,6,3,6,0,5,4,3,6,6,6,1,2,5,0,0,1,3,3,1,0,0,0,0,0,0,0,0,0,0,0,0,0,0,0,0,0,0,0,0,0,0,0,0,0,0,0,0,0,0,0,0,0,0,0,0,0,0,0,0,0,0,0,0,0,0,0,0,0,0,0,0,0,0,0,0,0,0,0,0,0,0],"split_type":[0,0,0,0,0,0,0,0,0,0,0,0,0,0,0,0,0,0,0,0,0,0,0,0,0,0,0,0,0,0,0,0,0,0,0,0,0,0,0,0,0,0,0,0,0,0,0,0,0,0,0,0,0,0,0,0,0,0,0,0,0,0,0,0,0,0,0,0,0,0,0,0,0,0,0,0,0,0,0,0,0,0,0,0,0,0,0,0,0,0,0,0,0,0,0,0,0,0,0,0,0,0,0,0,0,0,0,0,0,0,0,0,0,0,0,0,0,0,0,0,0,0,0,0,0],"sum_hessian":[9.670459E3,5.5321177E3,4.138341E3,3.059233E3,2.4728845E3,1.2439291E3,2.8944119E3,4.293311E2,2.6299019E3,1.6464862E2,2.308236E3,1.660403E2,1.0778888E3,6.178006E2,2.2766113E3,1.2892635E2,3.0040472E2,2.2677378E3,3.6216403E2,2.2617563E1,1.4203107E2,1.1187205E3,1.1895156E3,1.1315864E2,5.2881653E1,1.2115288E2,9.567359E2,2.9679688E2,3.210037E2,2.2543923E3,2.2219011E1,5.714966E1,7.1776695E1,1.212369E2,1.7916782E2,1.2594203E3,1.0083175E3,2.570987E2,1.0506533E2,1.7205608E1,5.4119554E0,8.9770164E1,5.22609E1,5.73797E2,5.449234E2,4.5141257E2,7.3810297E2,7.251464E1,4.0644E1,5.022333E1,2.6583216E0,9.268343E1,2.8469442E1,7.387737E2,2.1796219E2,1.3345117E2,1.6334572E2,3.1859354E2,2.4101412E0,9.596826E2,1.2947097E3,1.059585E1,1.1623162E1,2.3702131E1,3.3447525E1,4.4855347E1,2.6921345E1,4.167776E0,1.1706913E2,1.6856299E2,1.0604838E1,1.2225059E3,3.691439E1,1.0613634E1,9.9770386E2,1.6578448E2,9.131421E1,1.01171455E2,3.8938746E0,7.450922E0,9.754687E0,2.8177059E0,2.5942495E0,8.3616806E1,6.1533556E0,1.2153302E1,4.0107597E1,3.4373328E2,2.3006372E2,5.218364E2,2.3086992E1,1.27568115E2,3.2384445E2,2.9195258E2,4.4615042E2,6.158451E0,6.6356186E1,1.6274977E1,2.4369022E1,1.7588152E1,3.2635178E1,1.4458537E0,1.2124679E0,2.5739353E1,6.6944084E1,1.3458062E1,1.5011381E1,4.8056375E2,2.5820996E2,7.408837E1,1.4387381E2,8.594659E1,4.7504574E1,1.4242844E2,2.091729E1,1.1296219E0,1.2805192E0,9.1257916E2,4.7103493E1,7.4041876E2,5.54291E2,9.400167E0,1.1956818E0,8.915522E0,2.707641E0],"tree_param":{"num_deleted":"0","num_feature":"14","num_nodes":"125","size_leaf_vector":"1"}},{"base_weights":[-1.8799873E-2,5.2779865E-1,-8.1616014E-1,7.9508764E-1,1.9164643E-1,-9.531193E-1,-2.2706045E-1,1.133906E0,6.57328E-1,-5.541203E-1,3.1325924E-1,-9.809381E-1,5.1138084E-2,-6.631041E-2,-7.3988634E-1,7.198741E-1,1.1837385E0,3.4221047E-1,7.837068E-1,-7.595863E-1,3.1719425E-1,9.063266E-2,4.803136E-1,-7.669682E-1,-1.0435345E0,3.158836E-1,-4.4119638E-1,-1.0470537E-1,1.1995485E0,-9.6715856E-1,-5.74109E-1,-4.777946E-1,7.818052E-1,1.1110144E0,1.2828416E0,9.7133E-2,7.6579714E-1,6.6322386E-1,9.265672E-1,-4.3596414E-1,-8.488161E-1,-2.7863117E-2,8.55892E-1,-9.292533E-2,5.3697497E-1,4.2984542E-1,9.9420583E-1,-5.7520866E-1,-8.7122256E-1,-9.0514004E-1,-1.0630732E0,8.439465E-2,9.9908614E-1,-5.666333E-1,9.465103E-2,-1.5370582E-1,4.402551E-1,1.8330364E-1,9.120144E-1,-1.0095449E-1,-3.4405506E-1,-2.4051319E-1,-7.297021E-1,3.8948897E-2,-1.0481139E-1,-3.2281384E-2,8.388492E-2,1.3408343E-1,1.0637679E-1,1.2874123E-1,2.0761963E-2,-8.779535E-2,1.5910998E-2,6.8675905E-2,1.05650924E-1,5.5181205E-2,9.271469E-2,7.654218E-2,1.01205386E-1,8.3228745E-2,-5.1371902E-2,-8.9080445E-2,-4.904369E-2,-2.7256591E-2,5.168438E-2,1.0182428E-1,-2.6898725E-2,5.414008E-2,-1.5441067E-2,6.168827E-2,-3.0604905E-2,3.6119547E-2,7.447424E-2,6.8448335E-2,1.127455E-1,-6.576001E-2,-3.5225507E-2,-9.364533E-2,-6.393599E-2,-9.136857E-2,2.7227286E-2,-9.7665325E-2,-1.0803522E-1,-7.037427E-2,1.9329358E-2,1.4789711E-1,-4.4705156E-2,8.6355835E-2,-6.5351896E-2,-2.0009823E-2,2.6558012E-2,-3.005294E-2,5.903676E-2,4.0404163E-2,1.4941333E-1,3.8045738E-2,-8.6578086E-2,-4.6284504E-2,6.313521E-2,-7.638502E-2,4.7026426E-2],"categories":[],"categories_nodes":[],"categories_segments":[],"categories_sizes":[],"default_left":[1,0,0,0,0,1,0,0,0,1,0,0,0,1,0,0,0,1,0,0,0,1,1,0,0,0,0,0,0,0,0,0,0,0,0,0,0,1,0,0,1,0,0,1,0,0,0,0,0,0,0,0,0,0,0,0,0,0,0,0,0,0,0,0,0,0,0,0,0,0,0,0,0,0,0,0,0,0,0,0,0,0,0,0,0,0,0,0,0,0,0,0,0,0,0,0,0,0,0,0,0,0,0,0,0,0,0,0,0,0,0,0,0,0,0,0,0,0,0,0,0],"id":10,"left_children":[1,3,5,7,9,11,13,15,17,19,21,23,25,27,29,31,33,35,37,39,41,43,45,47,49,51,53,55,57,59,61,63,65,67,69,71,73,75,77,79,81,83,85,87,89,91,93,95,97,99,101,103,105,107,-1,109,111,-1,113,-1,115,117,119,-1,-1,-1,-1,-1,-1,-1,-1,-1,-1,-1,-1,-1,-1,-1,-1,-1,-1,-1,-1,-1,-1,-1,-1,-1,-1,-1,-1,-1,-1,-1,-1,-1,-1,-1,-1,-1,-1,-1,-1,-1,-1,-1,-1,-1,-1,-1,-1,-1,-1,-1,-1,-1,-1,-1,-1,-1,-1],"loss_changes":[4.0909636E3,5.002162E2,3.0779297E2,1.4403796E2,2.2401125E2,8.657471E1,5.9423317E1,1.7618896E1,8.764972E1,6.2254837E1,7.8898865E1,3.956421E1,1.1144342E1,2.6874432E1,5.927841E0,7.696537E0,4.322754E0,6.571286E1,2.6493713E1,7.7325745E0,1.2441335E1,7.4703926E1,3.1017487E1,1.3210632E1,5.335205E0,8.6914215E0,5.748325E0,1.4355974E1,1.2939739E0,1.5308609E0,5.1166267E0,3.1162696E0,6.2098846E0,3.649292E0,1.3598022E0,2.4469631E1,4.608017E0,2.4714203E1,9.116821E0,6.6106567E0,2.856964E0,5.6976175E0,5.043051E0,2.5298958E1,1.8085922E1,2.3635345E1,3.6714783E0,4.2597656E0,6.0918884E0,3.2153625E0,1.9833984E0,3.7869418E0,1.0342693E1,4.0543356E0,0E0,9.617048E0,5.1149015E0,0E0,3.2963142E0,0E0,2.6149156E0,6.8675065E0,3.1881065E0,0E0,0E0,0E0,0E0,0E0,0E0,0E0,0E0,0E0,0E0,0E0,0E0,0E0,0E0,0E0,0E0,0E0,0E0,0E0,0E0,0E0,0E0,0E0,0E0,0E0,0E0,0E0,0E0,0E0,0E0,0E0,0E0,0E0,0E0,0E0,0E0,0E0,0E0,0E0,0E0,0E0,0E0,0E0,0E0,0E0,0E0,0E0,0E0,0E0,0E0,0E0,0E0,0E0,0E0,0E0,0E0,0E0,0E0],"parents":[2147483647,0,0,1,1,2,2,3,3,4,4,5,5,6,6,7,7,8,8,9,9,10,10,11,11,12,12,13,13,14,14,15,15,16,16,17,17,18,18,19,19,20,20,21,21,22,22,23,23,24,24,25,25,26,26,27,27,28,28,29,29,30,30,31,31,32,32,33,33,34,34,35,35,36,36,37,37,38,38,39,39,40,40,41,41,42,42,43,43,44,44,45,45,46,46,47,47,48,48,49,49,50,50,51,51,52,52,53,53,55,55,56,56,58,58,60,60,61,61,62,62],"right_children":[2,4,6,8,10,12,14,16,18,20,22,24,26,28,30,32,34,36,38,40,42,44,46,48,50,52,54,56,58,60,62,64,66,68,70,72,74,76,78,80,82,84,86,88,90,92,94,96,98,100,102,104,106,108,-1,110,112,-1,114,-1,116,118,120,-1,-1,-1,-1,-1,-1,-1,-1,-1,-1,-1,-1,-1,-1,-1,-1,-1,-1,-1,-1,-1,-1,-1,-1,-1,-1,-1,-1,-1,-1,-1,-1,-1,-1,-1,-1,-1,-1,-1,-1,-1,-1,-1,-1,-1,-1,-1,-1,-1,-1,-1,-1,-1,-1,-1,-1,-1,-1],"split_conditions":[6.013554E-1,4.1492411E-1,9.796527E-2,1.8645525E-1,6.1059453E-2,7.280433E-2,7.7155256E-1,2.89511E-2,5.5353176E-2,1.0999851E-1,1.4495534E-1,7.270317E-1,8.463219E-1,1.3966373E-1,1.5670316E-1,2.4700971E-2,6.454872E-1,1.70395E-1,6.2323964E-1,7.583847E-1,4.4593498E-2,1.0694903E-1,1.3795125E-1,8.1384E-1,8.0395997E-1,8.148837E-1,3.9209104E-1,8.753533E-1,4.6080623E-2,5.070116E-1,3.3333334E-1,4.856917E-3,1.6684725E-3,1.7901182E-1,8.0395997E-1,1.8825732E-2,5.5599904E-1,1.30214E-1,3.1510246E-1,7.100426E-4,4.1358117E-2,1.66372E-2,9.415236E-1,6.861039E-2,8.798203E-1,7.658399E-1,4.9763045E-1,5.0378975E-2,1.4156698E-1,6.435185E-1,7.949194E-1,6.118055E-1,5E-1,6.08115E-1,9.465103E-2,6.267559E-1,8.352861E-2,1.8330364E-1,3.8980225E-1,-1.0095449E-1,8.245769E-1,3.862652E-1,9.887187E-1,3.8948897E-2,-1.0481139E-1,-3.2281384E-2,8.388492E-2,1.3408343E-1,1.0637679E-1,1.2874123E-1,2.0761963E-2,-8.779535E-2,1.5910998E-2,6.8675905E-2,1.05650924E-1,5.5181205E-2,9.271469E-2,7.654218E-2,1.01205386E-1,8.3228745E-2,-5.1371902E-2,-8.9080445E-2,-4.904369E-2,-2.7256591E-2,5.168438E-2,1.0182428E-1,-2.6898725E-2,5.414008E-2,-1.5441067E-2,6.168827E-2,-3.0604905E-2,3.6119547E-2,7.447424E-2,6.8448335E-2,1.127455E-1,-6.576001E-2,-3.5225507E-2,-9.364533E-2,-6.393599E-2,-9.136857E-2,2.7227286E-2,-9.7665325E-2,-1.0803522E-1,-7.037427E-2,1.9329358E-2,1.4789711E-1,-4.4705156E-2,8.6355835E-2,-6.5351896E-2,-2.0009823E-2,2.6558012E-2,-3.005294E-2,5.903676E-2,4.0404163E-2,1.4941333E-1,3.8045738E-2,-8.6578086E-2,-4.6284504E-2,6.313521E-2,-7.638502E-2,4.7026426E-2],"split_indices":[9,9,0,9,5,7,9,0,0,7,0,9,3,7,5,5,6,7,6,3,5,7,7,3,3,3,7,0,3,6,8,6,0,6,3,5,7,7,5,6,7,0,3,3,3,0,6,0,5,5,9,9,8,9,0,6,7,0,3,0,9,6,9,0,0,0,0,0,0,0,0,0,0,0,0,0,0,0,0,0,0,0,0,0,0,0,0,0,0,0,0,0,0,0,0,0,0,0,0,0,0,0,0,0,0,0,0,0,0,0,0,0,0,0,0,0,0,0,0,0,0],"split_type":[0,0,0,0,0,0,0,0,0,0,0,0,0,0,0,0,0,0,0,0,0,0,0,0,0,0,0,0,0,0,0,0,0,0,0,0,0,0,0,0,0,0,0,0,0,0,0,0,0,0,0,0,0,0,0,0,0,0,0,0,0,0,0,0,0,0,0,0,0,0,0,0,0,0,0,0,0,0,0,0,0,0,0,0,0,0,0,0,0,0,0,0,0,0,0,0,0,0,0,0,0,0,0,0,0,0,0,0,0,0,0,0,0,0,0,0,0,0,0,0,0],"sum_hessian":[9.384487E3,5.567944E3,3.816544E3,3.1009116E3,2.4670322E3,3.0961138E3,7.204302E2,8.942591E2,2.2066526E3,3.4539694E2,2.1216353E3,3.012683E3,8.343067E1,5.493581E2,1.710721E2,9.77286E1,7.965305E2,6.3271796E2,1.5739346E3,2.7959375E2,6.580319E1,9.101961E2,1.2114391E3,6.8487256E2,2.3278105E3,5.4488625E1,2.8942049E1,5.3407623E2,1.528186E1,7.0114555E1,1.00957535E2,4.474898E0,9.32537E1,4.6644952E2,3.3008096E2,4.0159418E2,2.311238E2,8.569002E2,7.170343E2,6.170077E1,2.1789297E2,4.068872E1,2.511447E1,6.4551874E2,2.6467737E2,1.1047778E3,1.0666121E2,2.4350352E2,4.4136905E2,2.9383936E2,2.0339711E3,4.15379E1,1.2950725E1,2.7085432E1,1.8566165E0,4.9067487E2,4.3401375E1,3.0928183E0,1.2189042E1,6.506815E1,5.046408E0,3.2920616E1,6.803692E1,1.9010472E0,2.5738504E0,4.350477E0,8.890323E1,7.487188E1,3.9157767E2,3.284872E2,1.5937403E0,2.3213255E1,3.7838092E2,1.8436218E2,4.6761623E1,6.047173E2,2.5218292E2,2.5198582E2,4.650485E2,3.0037026E0,5.8697067E1,1.937117E2,2.4181267E1,2.842069E1,1.226803E1,2.202977E1,3.0846999E0,5.6351498E1,5.8916724E2,2.4200655E2,2.2670824E1,9.087995E2,1.959784E2,3.3930508E1,7.2730705E1,1.7637541E2,6.712811E1,3.4208914E2,9.9279915E1,2.9194443E2,1.8949429E0,3.484991E2,1.685472E3,4.3795204E0,3.715838E1,9.706894E0,3.2438302E0,1.0392767E0,2.6046156E1,4.422629E2,4.8411957E1,7.1441174E0,3.6257256E1,7.4137177E0,4.775325E0,2.2259865E0,2.8204215E0,2.6605227E1,6.3153906E0,6.650771E1,1.5292057E0],"tree_param":{"num_deleted":"0","num_feature":"14","num_nodes":"121","size_leaf_vector":"1"}},{"base_weights":[-1.375561E-2,4.8747233E-1,-7.739968E-1,3.0358714E-1,9.107969E-1,-9.506203E-1,-2.0996419E-1,2.3102503E-2,4.8984122E-1,1.1431667E0,7.6266235E-1,-7.047733E-1,-1.0349536E0,-2.0888895E-2,-7.2376704E-1,3.1834054E-1,-1.5151529E-1,6.123306E-1,2.8780854E-1,1.2282293E0,9.242955E-1,6.039247E-1,1.051658E0,-8.0181426E-1,-4.2667726E-1,-9.514531E-1,-1.063963E0,9.791496E-1,-8.684796E-2,3.6047357E-1,-7.897765E-1,5.7194626E-1,1.5131819E-1,3.1356156E-1,-2.1428968E-1,7.651363E-1,4.6147564E-1,2.2120634E-1,7.352676E-1,-2.6303843E-2,1.2328262E0,1.2425294E0,7.1233344E-1,7.3759526E-1,3.8512984E-1,1.0921062E0,4.7617432E-1,-6.903749E-1,-9.3213654E-1,-1.4161032E-1,-6.2162143E-1,-3.6069924E-1,-9.5868623E-1,-1.06454216E-1,-2.259247E-2,4.6770135E-1,1.285963E0,-3.770603E-1,5.9854E-2,-2.0875555E-2,1.715397E-1,-8.313495E-1,-2.7788362E-1,7.2707325E-2,1.4576981E-2,1.0591614E-2,5.800271E-2,-3.743335E-2,4.8969343E-2,-1.2357795E-2,-4.206336E-2,9.611418E-2,6.85043E-2,5.4062992E-2,2.553234E-2,8.094154E-3,3.345346E-2,9.557419E-2,4.977687E-2,4.813073E-2,1.2361552E-1,6.868567E-2,1.350913E-1,6.0599107E-2,1.299163E-1,-2.0469045E-2,7.57626E-2,5.5187553E-2,3.1494664E-3,1.21351674E-1,9.642308E-2,-5.0093967E-2,7.434188E-2,-4.793711E-2,-8.114408E-2,-6.659761E-2,-9.851249E-2,2.9478967E-2,-3.1631377E-2,-4.115368E-2,-7.9396E-2,7.7446036E-2,-6.6317946E-2,-9.782719E-2,-7.3540695E-2,1.0027772E-1,-3.2744016E-2,-3.158513E-2,1.4137875E-1,-5.2401293E-2,2.334195E-2,3.09302E-2,-1.5462543E-2,8.9791745E-2,-4.1389402E-2,-5.8187094E-2,-9.207981E-2,-4.5000043E-2,7.2591655E-2],"categories":[],"categories_nodes":[],"categories_segments":[],"categories_sizes":[],"default_left":[0,0,0,0,0,1,1,0,0,0,0,0,0,1,0,0,0,0,0,0,0,0,0,0,0,0,0,0,0,0,0,0,0,0,0,0,0,0,0,0,0,0,0,0,0,0,0,0,1,0,0,0,0,0,0,0,0,0,0,0,0,0,0,0,0,0,0,0,0,0,0,0,0,0,0,0,0,0,0,0,0,0,0,0,0,0,0,0,0,0,0,0,0,0,0,0,0,0,0,0,0,0,0,0,0,0,0,0,0,0,0,0,0,0,0,0,0,0,0],"id":11,"left_children":[1,3,5,7,9,11,13,15,17,19,21,23,25,27,29,31,33,35,37,39,41,43,45,47,49,51,53,55,57,59,61,63,65,67,69,71,73,75,77,-1,79,81,83,85,87,89,91,93,95,97,99,101,103,-1,-1,105,107,109,111,113,-1,115,117,-1,-1,-1,-1,-1,-1,-1,-1,-1,-1,-1,-1,-1,-1,-1,-1,-1,-1,-1,-1,-1,-1,-1,-1,-1,-1,-1,-1,-1,-1,-1,-1,-1,-1,-1,-1,-1,-1,-1,-1,-1,-1,-1,-1,-1,-1,-1,-1,-1,-1,-1,-1,-1,-1,-1,-1],"loss_changes":[3.4484856E3,4.2428247E2,3.5802222E2,1.9870743E2,5.5965088E1,5.6039062E1,8.341296E1,7.835818E1,5.6391663E1,1.0795288E1,4.5760498E1,1.8615479E1,3.9208984E0,4.156138E1,1.6816177E1,2.3838985E1,2.7952742E1,3.243042E1,2.5606178E1,3.46698E0,1.1485092E1,1.8876602E1,7.794983E0,6.902954E0,1.0129211E1,1.9384155E0,4.888916E-1,5.5165863E0,2.5175999E1,7.2396445E0,4.409088E0,1.46981735E1,6.593707E0,1.3995176E1,1.5711304E1,1.0409302E1,1.1581116E1,1.1959698E1,5.367779E0,0E0,5.488281E-1,3.406662E0,6.2280693E0,7.810501E0,1.4757023E1,3.9996033E0,6.9610457E0,6.8648834E0,2.6816711E0,5.884719E0,3.6157684E0,3.2842827E0,1.5873413E0,0E0,0E0,7.216819E0,5.3191795E0,1.7931068E1,2.1089716E1,4.6571474E0,0E0,3.9532318E0,3.4158041E0,0E0,0E0,0E0,0E0,0E0,0E0,0E0,0E0,0E0,0E0,0E0,0E0,0E0,0E0,0E0,0E0,0E0,0E0,0E0,0E0,0E0,0E0,0E0,0E0,0E0,0E0,0E0,0E0,0E0,0E0,0E0,0E0,0E0,0E0,0E0,0E0,0E0,0E0,0E0,0E0,0E0,0E0,0E0,0E0,0E0,0E0,0E0,0E0,0E0,0E0,0E0,0E0,0E0,0E0,0E0,0E0],"parents":[2147483647,0,0,1,1,2,2,3,3,4,4,5,5,6,6,7,7,8,8,9,9,10,10,11,11,12,12,13,13,14,14,15,15,16,16,17,17,18,18,19,19,20,20,21,21,22,22,23,23,24,24,25,25,26,26,27,27,28,28,29,29,30,30,31,31,32,32,33,33,34,34,35,35,36,36,37,37,38,38,40,40,41,41,42,42,43,43,44,44,45,45,46,46,47,47,48,48,49,49,50,50,51,51,52,52,55,55,56,56,57,57,58,58,59,59,61,61,62,62],"right_children":[2,4,6,8,10,12,14,16,18,20,22,24,26,28,30,32,34,36,38,40,42,44,46,48,50,52,54,56,58,60,62,64,66,68,70,72,74,76,78,-1,80,82,84,86,88,90,92,94,96,98,100,102,104,-1,-1,106,108,110,112,114,-1,116,118,-1,-1,-1,-1,-1,-1,-1,-1,-1,-1,-1,-1,-1,-1,-1,-1,-1,-1,-1,-1,-1,-1,-1,-1,-1,-1,-1,-1,-1,-1,-1,-1,-1,-1,-1,-1,-1,-1,-1,-1,-1,-1,-1,-1,-1,-1,-1,-1,-1,-1,-1,-1,-1,-1,-1,-1],"split_conditions":[6.045829E-1,2.5776547E-1,7.786401E-2,3.1234246E-1,2.8615683E-2,7.322744E-1,7.69151E-1,4.3235382E-1,4.521525E-1,3.7002376E-1,5.8847284E-1,7.909536E-3,8.194011E-1,9.154562E-3,1.7192602E-2,6.6229594E-1,3.687827E-2,4.173604E-2,8.1096476E-1,7.7931723E-3,9.880596E-3,5E-1,4.7518036E-1,8.1942403E-1,8.151471E-1,2.9777014E-3,2.975475E-1,2.4392727E-1,1.8827005E-1,1.7119865E-1,6.937145E-2,1.7901182E-1,6.347836E-2,6.69491E-2,9.1287875E-1,1.9589547E-2,1E0,2.3678906E-2,3.3333334E-1,-2.6303843E-2,1.5670678E-2,1.5731846E-1,6.695672E-1,4.444138E-3,4.1610742E-1,1.412903E-1,1.0381663E-1,6.632058E-1,6.250537E-1,4.633328E-2,3.3333334E-1,8.109561E-1,4.6140246E-2,-1.06454216E-1,-2.259247E-2,4.966888E-2,2.9524742E-3,3.7266514E-1,3.3333334E-1,4.348234E-3,1.715397E-1,7.1477406E-2,6.438854E-1,7.2707325E-2,1.4576981E-2,1.0591614E-2,5.800271E-2,-3.743335E-2,4.8969343E-2,-1.2357795E-2,-4.206336E-2,9.611418E-2,6.85043E-2,5.4062992E-2,2.553234E-2,8.094154E-3,3.345346E-2,9.557419E-2,4.977687E-2,4.813073E-2,1.2361552E-1,6.868567E-2,1.350913E-1,6.0599107E-2,1.299163E-1,-2.0469045E-2,7.57626E-2,5.5187553E-2,3.1494664E-3,1.21351674E-1,9.642308E-2,-5.0093967E-2,7.434188E-2,-4.793711E-2,-8.114408E-2,-6.659761E-2,-9.851249E-2,2.9478967E-2,-3.1631377E-2,-4.115368E-2,-7.9396E-2,7.7446036E-2,-6.6317946E-2,-9.782719E-2,-7.3540695E-2,1.0027772E-1,-3.2744016E-2,-3.158513E-2,1.4137875E-1,-5.2401293E-2,2.334195E-2,3.09302E-2,-1.5462543E-2,8.9791745E-2,-4.1389402E-2,-5.8187094E-2,-9.207981E-2,-4.5000043E-2,7.2591655E-2],"split_indices":[10,12,1,6,2,10,10,10,10,10,12,11,10,2,2,2,2,2,1,1,2,8,10,2,2,11,11,6,6,12,11,6,1,1,2,2,8,11,8,0,1,6,12,1,10,10,1,10,10,11,8,2,11,0,0,6,12,1,8,11,0,2,1,0,0,0,0,0,0,0,0,0,0,0,0,0,0,0,0,0,0,0,0,0,0,0,0,0,0,0,0,0,0,0,0,0,0,0,0,0,0,0,0,0,0,0,0,0,0,0,0,0,0,0,0,0,0,0,0],"split_type":[0,0,0,0,0,0,0,0,0,0,0,0,0,0,0,0,0,0,0,0,0,0,0,0,0,0,0,0,0,0,0,0,0,0,0,0,0,0,0,0,0,0,0,0,0,0,0,0,0,0,0,0,0,0,0,0,0,0,0,0,0,0,0,0,0,0,0,0,0,0,0,0,0,0,0,0,0,0,0,0,0,0,0,0,0,0,0,0,0,0,0,0,0,0,0,0,0,0,0,0,0,0,0,0,0,0,0,0,0,0,0,0,0,0,0,0,0,0,0],"sum_hessian":[9.047868E3,5.4530347E3,3.5948335E3,3.802855E3,1.6501797E3,2.7370554E3,8.577781E2,1.517994E3,2.2848608E3,6.398183E2,1.0103614E3,7.0147784E2,2.0355775E3,6.2779517E2,2.2998288E2,5.6384326E2,9.5415076E2,1.4211863E3,8.6367456E2,4.5743002E2,1.8238832E2,6.5414606E2,3.5621533E2,5.1862256E2,1.828553E2,5.3356525E2,1.5020123E3,3.798845E1,5.898067E2,1.2942038E1,2.1704083E2,2.2292737E2,3.409159E2,1.129967E2,8.4115405E2,7.040054E2,7.1718097E2,7.530769E2,1.10597626E2,1.232971E0,4.5619705E2,7.097156E1,1.1141676E2,4.0459286E2,2.495532E2,3.3198392E2,2.423142E1,2.8295956E2,2.3566301E2,7.496313E1,1.0789217E2,7.0692267E0,5.2649603E2,1.500705E3,1.3073289E0,1.5190596E1,2.2797855E1,1.9751115E2,3.9229556E2,1.0867831E1,2.074206E0,2.0016086E2,1.6879988E1,1.6291922E2,6.0008152E1,3.0939658E2,3.1519318E1,2.2804983E1,9.019171E1,5.854019E2,2.5575217E2,2.010332E2,5.0297214E2,5.170368E2,2.0014417E2,3.3730875E2,4.1576816E2,5.5786167E1,5.481146E1,2.6539035E0,4.5354312E2,1.2781144E1,5.8190414E1,9.604466E1,1.5372095E1,8.229763E0,3.963631E2,1.692079E2,8.0345314E1,1.6594173E2,1.6604219E2,5.0162535E0,1.9215168E1,1.04969475E2,1.7799008E2,4.1379974E1,1.9428304E2,2.1234097E1,5.372903E1,5.014825E1,5.774392E1,1.1590672E0,5.9101596E0,4.809285E2,4.5567516E1,8.924132E0,6.2664623E0,1.5761067E0,2.1221748E1,1.5930536E2,3.8205807E1,1.8115874E2,2.1113683E2,2.8711133E0,7.9967184E0,5.4806522E1,1.4535432E2,1.4880246E1,1.9997414E0],"tree_param":{"num_deleted":"0","num_feature":"14","num_nodes":"119","size_leaf_vector":"1"}},{"base_weights":[-1.5624747E-2,4.5487404E-1,-7.3415685E-1,7.558516E-1,2.1140152E-1,-1.7483248E-1,-9.118549E-1,6.0075575E-1,1.039835E0,4.118531E-1,-2.9060267E-2,-3.931295E-2,-6.583397E-1,-6.5891767E-1,-1.0013378E0,9.18662E-1,4.9905127E-1,2.679122E-1,1.061867E0,5.173872E-1,1.5576307E-1,-1.5164958E-1,2.759282E-1,4.0841004E-1,-1.418276E-1,3.146062E-2,-7.13181E-1,-5.3474104E-1,-9.0228367E-1,-1.0093664E0,-2.798702E-1,1.2655835E0,8.5710126E-1,2.9517522E-1,6.127714E-1,-1.15382805E-1,7.1528846E-1,1.0949078E0,7.4338937E-1,7.925074E-1,4.4901356E-1,1.9273642E-2,4.793587E-1,-4.6141587E-2,-4.9114713E-1,-1.1283111E-1,3.5781267E-1,-5.9986883E-1,5.688816E-1,-2.0553976E-1,3.7930694E-1,-1.824433E-1,1.18093446E-1,1.1088906E-2,-7.3967713E-1,-5.885809E-1,-9.188989E-2,-9.2468697E-1,2.761567E-1,-9.1844785E-1,-1.044528E0,-6.874326E-1,1.0110186E0,9.2149206E-2,1.339497E-1,-6.672702E-2,8.687664E-2,5.7173997E-2,1.9933006E-2,8.126763E-2,5.299973E-2,-3.8928684E-2,8.87161E-2,1.0016739E-1,-1.1290389E-2,1.1560706E-1,9.6521586E-2,5.239871E-2,1.05422355E-1,-4.1170057E-2,8.473453E-2,4.217984E-2,1.0003283E-1,-5.8504096E-3,5.963468E-2,1.0466739E-1,4.128946E-2,1.5764356E-2,-1.4859666E-2,-1.1031833E-2,-6.070115E-2,3.5550979E-3,-6.703021E-2,2.9139418E-2,7.020085E-2,-8.255086E-2,5.589643E-2,7.585286E-2,2.0781176E-2,-4.334344E-2,-1.34969475E-2,5.461988E-2,-1.1811272E-2,2.9070852E-2,-4.682542E-2,-7.134195E-2,1.4484157E-1,-8.005356E-2,-3.3180773E-2,-6.771173E-2,-4.090429E-2,-2.0256897E-2,6.353162E-2,-4.0488737E-3,-9.420568E-2,-3.6089238E-2,5.9984293E-2,2.9387197E-2,-9.248625E-2,-1.0457771E-1,-1.1200938E-2,1.0885148E-2,-9.0755634E-2,1.49385E-1,-3.126382E-2],"categories":[],"categories_nodes":[],"categories_segments":[],"categories_sizes":[],"default_left":[1,0,0,0,1,0,0,0,0,1,0,0,0,0,0,0,0,0,0,1,0,0,0,0,0,0,0,0,0,0,0,0,0,0,0,0,0,0,0,0,0,0,0,0,0,0,0,0,0,0,0,0,0,0,0,0,0,0,0,0,0,0,0,0,0,0,0,0,0,0,0,0,0,0,0,0,0,0,0,0,0,0,0,0,0,0,0,0,0,0,0,0,0,0,0,0,0,0,0,0,0,0,0,0,0,0,0,0,0,0,0,0,0,0,0,0,0,0,0,0,0,0,0,0,0],"id":12,"left_children":[1,3,5,7,9,11,13,15,17,19,21,23,25,27,29,31,33,35,37,39,41,43,45,47,49,51,53,55,57,59,61,63,65,67,69,71,73,75,77,79,81,83,85,87,89,91,93,95,97,99,101,103,-1,105,107,109,111,113,115,117,119,121,123,-1,-1,-1,-1,-1,-1,-1,-1,-1,-1,-1,-1,-1,-1,-1,-1,-1,-1,-1,-1,-1,-1,-1,-1,-1,-1,-1,-1,-1,-1,-1,-1,-1,-1,-1,-1,-1,-1,-1,-1,-1,-1,-1,-1,-1,-1,-1,-1,-1,-1,-1,-1,-1,-1,-1,-1,-1,-1,-1,-1,-1,-1],"loss_changes":[2.9752551E3,3.895652E2,3.4596362E2,1.041095E2,1.4179066E2,5.5071404E1,5.915088E1,4.9344177E1,1.3977295E1,4.3275635E1,5.0074184E1,3.0251663E1,6.983879E0,2.047519E1,1.1013306E1,6.8632507E0,2.6926239E1,4.3022156E0,7.76178E0,2.100644E1,2.073169E1,3.4190926E1,1.2265009E1,2.0213566E1,1.7875288E1,3.783264E0,3.280365E0,1.0953018E1,6.4027405E0,5.204834E0,1.2714567E1,1.3872528E-1,6.2550964E0,1.1034264E1,1.1972961E1,4.2211294E0,2.8391838E0,4.724304E0,4.8841667E0,1.5190079E1,1.3260101E1,1.4906056E1,4.8191566E0,1.5260833E1,9.921009E0,5.613426E0,7.0525703E0,4.9981327E0,7.132984E0,7.6334324E0,4.941222E0,1.9076827E0,0E0,8.325847E0,3.817833E0,6.262863E0,4.251728E0,3.4748077E0,1.2710255E0,4.5180054E0,1.4940186E0,3.2466488E0,4.229331E0,0E0,0E0,0E0,0E0,0E0,0E0,0E0,0E0,0E0,0E0,0E0,0E0,0E0,0E0,0E0,0E0,0E0,0E0,0E0,0E0,0E0,0E0,0E0,0E0,0E0,0E0,0E0,0E0,0E0,0E0,0E0,0E0,0E0,0E0,0E0,0E0,0E0,0E0,0E0,0E0,0E0,0E0,0E0,0E0,0E0,0E0,0E0,0E0,0E0,0E0,0E0,0E0,0E0,0E0,0E0,0E0,0E0,0E0,0E0,0E0,0E0,0E0],"parents":[2147483647,0,0,1,1,2,2,3,3,4,4,5,5,6,6,7,7,8,8,9,9,10,10,11,11,12,12,13,13,14,14,15,15,16,16,17,17,18,18,19,19,20,20,21,21,22,22,23,23,24,24,25,25,26,26,27,27,28,28,29,29,30,30,31,31,32,32,33,33,34,34,35,35,36,36,37,37,38,38,39,39,40,40,41,41,42,42,43,43,44,44,45,45,46,46,47,47,48,48,49,49,50,50,51,51,53,53,54,54,55,55,56,56,57,57,58,58,59,59,60,60,61,61,62,62],"right_children":[2,4,6,8,10,12,14,16,18,20,22,24,26,28,30,32,34,36,38,40,42,44,46,48,50,52,54,56,58,60,62,64,66,68,70,72,74,76,78,80,82,84,86,88,90,92,94,96,98,100,102,104,-1,106,108,110,112,114,116,118,120,122,124,-1,-1,-1,-1,-1,-1,-1,-1,-1,-1,-1,-1,-1,-1,-1,-1,-1,-1,-1,-1,-1,-1,-1,-1,-1,-1,-1,-1,-1,-1,-1,-1,-1,-1,-1,-1,-1,-1,-1,-1,-1,-1,-1,-1,-1,-1,-1,-1,-1,-1,-1,-1,-1,-1,-1,-1,-1,-1,-1,-1,-1,-1],"split_conditions":[5.9035236E-1,3.67233E-1,2.7550638E-1,4.202318E-1,1.0824746E-1,7.7155256E-1,7.270317E-1,2.698084E-2,5.9591997E-3,5.170604E-1,9.2677595E-3,2.2275517E-2,3.130148E-2,9.09243E-1,3.9821336E-1,1.3806142E-1,5.3696472E-2,8.137413E-1,3.126245E-1,1.9589547E-2,5.8180976E-1,8.73066E-1,6.6195107E-3,2.9842965E-2,6.267559E-1,5.322814E-1,2.725721E-3,8.6335294E-2,2.8099856E-1,8.245769E-1,2.7284154E-1,2.479365E-2,1.1280296E-2,2.3250456E-1,2.2351797E-1,8.3769745E-1,9.128953E-3,6.648022E-2,6.3702714E-1,8.994537E-3,9.790461E-1,2.5776547E-1,9.880596E-3,4.559519E-1,4.361668E-1,1.0030862E0,2.3098001E-1,8.900316E-3,1.11639455E-1,4.21027E-3,6.63455E-1,4.50326E-3,1.18093446E-1,8.456323E-2,4.1798615E-1,1.357144E-2,4.202318E-1,8.100732E-1,4.50326E-3,9.432895E-4,3.3769253E-1,7.6512426E-1,6.024731E-1,9.2149206E-2,1.339497E-1,-6.672702E-2,8.687664E-2,5.7173997E-2,1.9933006E-2,8.126763E-2,5.299973E-2,-3.8928684E-2,8.87161E-2,1.0016739E-1,-1.1290389E-2,1.1560706E-1,9.6521586E-2,